{"learner":{"attributes":{"scikit_learn":"{\"_estimator_type\": \"regressor\"}"},"feature_names":["Sex","Length","Diameter","Height","Whole weight","Whole weight.1","Whole weight.2","Shell weight"],"feature_types":["int","float","float","float","float","float","float","float"],"gradient_booster":{"model":{"gbtree_model_param":{"num_parallel_tree":"1","num_trees":"1000"},"iteration_indptr":[0,1,2,3,4,5,6,7,8,9,10,11,12,13,14,15,16,17,18,19,20,21,22,23,24,25,26,27,28,29,30,31,32,33,34,35,36,37,38,39,40,41,42,43,44,45,46,47,48,49,50,51,52,53,54,55,56,57,58,59,60,61,62,63,64,65,66,67,68,69,70,71,72,73,74,75,76,77,78,79,80,81,82,83,84,85,86,87,88,89,90,91,92,93,94,95,96,97,98,99,100,101,102,103,104,105,106,107,108,109,110,111,112,113,114,115,116,117,118,119,120,121,122,123,124,125,126,127,128,129,130,131,132,133,134,135,136,137,138,139,140,141,142,143,144,145,146,147,148,149,150,151,152,153,154,155,156,157,158,159,160,161,162,163,164,165,166,167,168,169,170,171,172,173,174,175,176,177,178,179,180,181,182,183,184,185,186,187,188,189,190,191,192,193,194,195,196,197,198,199,200,201,202,203,204,205,206,207,208,209,210,211,212,213,214,215,216,217,218,219,220,221,222,223,224,225,226,227,228,229,230,231,232,233,234,235,236,237,238,239,240,241,242,243,244,245,246,247,248,249,250,251,252,253,254,255,256,257,258,259,260,261,262,263,264,265,266,267,268,269,270,271,272,273,274,275,276,277,278,279,280,281,282,283,284,285,286,287,288,289,290,291,292,293,294,295,296,297,298,299,300,301,302,303,304,305,306,307,308,309,310,311,312,313,314,315,316,317,318,319,320,321,322,323,324,325,326,327,328,329,330,331,332,333,334,335,336,337,338,339,340,341,342,343,344,345,346,347,348,349,350,351,352,353,354,355,356,357,358,359,360,361,362,363,364,365,366,367,368,369,370,371,372,373,374,375,376,377,378,379,380,381,382,383,384,385,386,387,388,389,390,391,392,393,394,395,396,397,398,399,400,401,402,403,404,405,406,407,408,409,410,411,412,413,414,415,416,417,418,419,420,421,422,423,424,425,426,427,428,429,430,431,432,433,434,435,436,437,438,439,440,441,442,443,444,445,446,447,448,449,450,451,452,453,454,455,456,457,458,459,460,461,462,463,464,465,466,467,468,469,470,471,472,473,474,475,476,477,478,479,480,481,482,483,484,485,486,487,488,489,490,491,492,493,494,495,496,497,498,499,500,501,502,503,504,505,506,507,508,509,510,511,512,513,514,515,516,517,518,519,520,521,522,523,524,525,526,527,528,529,530,531,532,533,534,535,536,537,538,539,540,541,542,543,544,545,546,547,548,549,550,551,552,553,554,555,556,557,558,559,560,561,562,563,564,565,566,567,568,569,570,571,572,573,574,575,576,577,578,579,580,581,582,583,584,585,586,587,588,589,590,591,592,593,594,595,596,597,598,599,600,601,602,603,604,605,606,607,608,609,610,611,612,613,614,615,616,617,618,619,620,621,622,623,624,625,626,627,628,629,630,631,632,633,634,635,636,637,638,639,640,641,642,643,644,645,646,647,648,649,650,651,652,653,654,655,656,657,658,659,660,661,662,663,664,665,666,667,668,669,670,671,672,673,674,675,676,677,678,679,680,681,682,683,684,685,686,687,688,689,690,691,692,693,694,695,696,697,698,699,700,701,702,703,704,705,706,707,708,709,710,711,712,713,714,715,716,717,718,719,720,721,722,723,724,725,726,727,728,729,730,731,732,733,734,735,736,737,738,739,740,741,742,743,744,745,746,747,748,749,750,751,752,753,754,755,756,757,758,759,760,761,762,763,764,765,766,767,768,769,770,771,772,773,774,775,776,777,778,779,780,781,782,783,784,785,786,787,788,789,790,791,792,793,794,795,796,797,798,799,800,801,802,803,804,805,806,807,808,809,810,811,812,813,814,815,816,817,818,819,820,821,822,823,824,825,826,827,828,829,830,831,832,833,834,835,836,837,838,839,840,841,842,843,844,845,846,847,848,849,850,851,852,853,854,855,856,857,858,859,860,861,862,863,864,865,866,867,868,869,870,871,872,873,874,875,876,877,878,879,880,881,882,883,884,885,886,887,888,889,890,891,892,893,894,895,896,897,898,899,900,901,902,903,904,905,906,907,908,909,910,911,912,913,914,915,916,917,918,919,920,921,922,923,924,925,926,927,928,929,930,931,932,933,934,935,936,937,938,939,940,941,942,943,944,945,946,947,948,949,950,951,952,953,954,955,956,957,958,959,960,961,962,963,964,965,966,967,968,969,970,971,972,973,974,975,976,977,978,979,980,981,982,983,984,985,986,987,988,989,990,991,992,993,994,995,996,997,998,999,1000],"tree_info":[0,0,0,0,0,0,0,0,0,0,0,0,0,0,0,0,0,0,0,0,0,0,0,0,0,0,0,0,0,0,0,0,0,0,0,0,0,0,0,0,0,0,0,0,0,0,0,0,0,0,0,0,0,0,0,0,0,0,0,0,0,0,0,0,0,0,0,0,0,0,0,0,0,0,0,0,0,0,0,0,0,0,0,0,0,0,0,0,0,0,0,0,0,0,0,0,0,0,0,0,0,0,0,0,0,0,0,0,0,0,0,0,0,0,0,0,0,0,0,0,0,0,0,0,0,0,0,0,0,0,0,0,0,0,0,0,0,0,0,0,0,0,0,0,0,0,0,0,0,0,0,0,0,0,0,0,0,0,0,0,0,0,0,0,0,0,0,0,0,0,0,0,0,0,0,0,0,0,0,0,0,0,0,0,0,0,0,0,0,0,0,0,0,0,0,0,0,0,0,0,0,0,0,0,0,0,0,0,0,0,0,0,0,0,0,0,0,0,0,0,0,0,0,0,0,0,0,0,0,0,0,0,0,0,0,0,0,0,0,0,0,0,0,0,0,0,0,0,0,0,0,0,0,0,0,0,0,0,0,0,0,0,0,0,0,0,0,0,0,0,0,0,0,0,0,0,0,0,0,0,0,0,0,0,0,0,0,0,0,0,0,0,0,0,0,0,0,0,0,0,0,0,0,0,0,0,0,0,0,0,0,0,0,0,0,0,0,0,0,0,0,0,0,0,0,0,0,0,0,0,0,0,0,0,0,0,0,0,0,0,0,0,0,0,0,0,0,0,0,0,0,0,0,0,0,0,0,0,0,0,0,0,0,0,0,0,0,0,0,0,0,0,0,0,0,0,0,0,0,0,0,0,0,0,0,0,0,0,0,0,0,0,0,0,0,0,0,0,0,0,0,0,0,0,0,0,0,0,0,0,0,0,0,0,0,0,0,0,0,0,0,0,0,0,0,0,0,0,0,0,0,0,0,0,0,0,0,0,0,0,0,0,0,0,0,0,0,0,0,0,0,0,0,0,0,0,0,0,0,0,0,0,0,0,0,0,0,0,0,0,0,0,0,0,0,0,0,0,0,0,0,0,0,0,0,0,0,0,0,0,0,0,0,0,0,0,0,0,0,0,0,0,0,0,0,0,0,0,0,0,0,0,0,0,0,0,0,0,0,0,0,0,0,0,0,0,0,0,0,0,0,0,0,0,0,0,0,0,0,0,0,0,0,0,0,0,0,0,0,0,0,0,0,0,0,0,0,0,0,0,0,0,0,0,0,0,0,0,0,0,0,0,0,0,0,0,0,0,0,0,0,0,0,0,0,0,0,0,0,0,0,0,0,0,0,0,0,0,0,0,0,0,0,0,0,0,0,0,0,0,0,0,0,0,0,0,0,0,0,0,0,0,0,0,0,0,0,0,0,0,0,0,0,0,0,0,0,0,0,0,0,0,0,0,0,0,0,0,0,0,0,0,0,0,0,0,0,0,0,0,0,0,0,0,0,0,0,0,0,0,0,0,0,0,0,0,0,0,0,0,0,0,0,0,0,0,0,0,0,0,0,0,0,0,0,0,0,0,0,0,0,0,0,0,0,0,0,0,0,0,0,0,0,0,0,0,0,0,0,0,0,0,0,0,0,0,0,0,0,0,0,0,0,0,0,0,0,0,0,0,0,0,0,0,0,0,0,0,0,0,0,0,0,0,0,0,0,0,0,0,0,0,0,0,0,0,0,0,0,0,0,0,0,0,0,0,0,0,0,0,0,0,0,0,0,0,0,0,0,0,0,0,0,0,0,0,0,0,0,0,0,0,0,0,0,0,0,0,0,0,0,0,0,0,0,0,0,0,0,0,0,0,0,0,0,0,0,0,0,0,0,0,0,0,0,0,0,0,0,0,0,0,0,0,0,0,0,0,0,0,0,0,0,0,0,0,0,0,0,0,0,0,0,0,0,0,0,0,0,0,0,0,0,0,0,0,0,0,0,0,0,0,0,0,0,0,0,0,0,0,0,0,0,0,0,0,0,0,0,0,0,0,0,0,0,0,0,0,0,0,0,0,0,0,0,0,0,0,0,0,0,0,0,0,0,0,0,0,0,0,0,0,0,0,0,0,0,0,0,0,0,0,0,0,0,0,0,0,0,0,0,0,0,0,0,0,0,0,0,0,0,0,0,0,0,0,0,0,0,0,0,0,0,0,0,0,0,0,0,0,0,0,0,0,0,0,0,0,0,0,0,0,0,0,0,0,0,0,0,0],"trees":[{"base_weights":[-3.8087614E-7,-2.1874511E0,1.59242E0,-3.911716E0,-1.4860758E0,8.195499E-1,2.8613262E0,-4.990018E0,-3.4019563E0,-2.1806664E0,-9.2172295E-1,1.9258254E0,4.655874E-1,4.8150325E0,2.4080644E0,-5.330779E0,-4.65634E0,-3.783235E0,-2.9924583E0,-2.2779796E0,-1.3855102E0,-1.269257E0,-6.8297577E-1,1.1441088E0,3.5070696E0,-1.998775E-1,8.936558E-1,4.373402E0,6.9018183E0,1.2449752E0,3.6169248E0,-5.5241976E-2,-5.1646173E-2,-4.7998913E-2,-4.4697884E-2,-3.9961684E-2,-3.537117E-2,-3.053121E-2,-2.3507478E-2,-1.1865047E-2,-2.3586677E-2,-1.4580303E-2,-7.879123E-3,-5.158982E-3,-1.3863895E-2,2.4601922E-3,-9.058858E-3,2.6900066E-2,8.196046E-3,4.126976E-2,2.9929377E-2,-4.9672844E-3,5.7783694E-4,1.9440055E-2,3.1780286E-3,5.0320104E-2,3.425898E-2,7.793528E-2,6.372521E-2,2.2175146E-2,9.94018E-3,5.389672E-2,2.6705055E-2],"categories":[],"categories_nodes":[],"categories_segments":[],"categories_sizes":[],"default_left":[0,0,0,0,0,0,0,0,0,0,0,0,0,0,0,0,0,0,0,0,0,0,0,0,0,0,0,0,0,0,0,0,0,0,0,0,0,0,0,0,0,0,0,0,0,0,0,0,0,0,0,0,0,0,0,0,0,0,0,0,0,0,0],"id":0,"left_children":[1,3,5,7,9,11,13,15,17,19,21,23,25,27,29,31,33,35,37,39,41,43,45,47,49,51,53,55,57,59,61,-1,-1,-1,-1,-1,-1,-1,-1,-1,-1,-1,-1,-1,-1,-1,-1,-1,-1,-1,-1,-1,-1,-1,-1,-1,-1,-1,-1,-1,-1,-1,-1],"loss_changes":[3.1564994E5,4.6162594E4,5.1426516E4,6.050328E3,1.0636324E4,1.276148E4,1.756639E4,3.778125E2,1.1593672E3,9.3816016E2,1.2416504E3,9.761055E3,7.0343374E3,3.413789E3,2.2651984E4,2.7554688E1,2.6667969E1,1.8914844E2,1.3374023E2,9.516094E2,5.6447266E1,5.3730273E2,1.8389067E3,2.6505234E3,8.204453E2,7.394282E2,9.088418E3,1.9091562E3,2.5759375E2,2.0025518E3,1.3241609E4,0E0,0E0,0E0,0E0,0E0,0E0,0E0,0E0,0E0,0E0,0E0,0E0,0E0,0E0,0E0,0E0,0E0,0E0,0E0,0E0,0E0,0E0,0E0,0E0,0E0,0E0,0E0,0E0,0E0,0E0,0E0,0E0],"parents":[2147483647,0,0,1,1,2,2,3,3,4,4,5,5,6,6,7,7,8,8,9,9,10,10,11,11,12,12,13,13,14,14,15,15,16,16,17,17,18,18,19,19,20,20,21,21,22,22,23,23,24,24,25,25,26,26,27,27,28,28,29,29,30,30],"right_children":[2,4,6,8,10,12,14,16,18,20,22,24,26,28,30,32,34,36,38,40,42,44,46,48,50,52,54,56,58,60,62,-1,-1,-1,-1,-1,-1,-1,-1,-1,-1,-1,-1,-1,-1,-1,-1,-1,-1,-1,-1,-1,-1,-1,-1,-1,-1,-1,-1,-1,-1,-1,-1],"split_conditions":[1.95E-1,7E-2,3.2E-1,3E-2,1.25E-1,3.3E-1,4.495E-1,5.45E-2,4.6E-2,2E0,1.55E-1,2.5E-1,2.55E-1,3.925E-1,4.1E-1,1E-2,2.25E-2,3.65E-2,2E0,1E0,1.2E-1,1.69E-1,2.29E-1,2.5E-1,2.985E-1,2.35E-1,4.155E-1,4.04E-1,4.03E-1,5.06E-1,6.31E-1,-5.5241976E-2,-5.1646173E-2,-4.7998913E-2,-4.4697884E-2,-3.9961684E-2,-3.537117E-2,-3.053121E-2,-2.3507478E-2,-1.1865047E-2,-2.3586677E-2,-1.4580303E-2,-7.879123E-3,-5.158982E-3,-1.3863895E-2,2.4601922E-3,-9.058858E-3,2.6900066E-2,8.196046E-3,4.126976E-2,2.9929377E-2,-4.9672844E-3,5.7783694E-4,1.9440055E-2,3.1780286E-3,5.0320104E-2,3.425898E-2,7.793528E-2,6.372521E-2,2.2175146E-2,9.94018E-3,5.389672E-2,2.6705055E-2],"split_indices":[7,7,7,7,7,5,5,4,7,0,7,7,7,7,7,7,7,7,0,0,7,5,5,5,5,7,5,5,5,5,5,0,0,0,0,0,0,0,0,0,0,0,0,0,0,0,0,0,0,0,0,0,0,0,0,0,0,0,0,0,0,0,0],"split_type":[0,0,0,0,0,0,0,0,0,0,0,0,0,0,0,0,0,0,0,0,0,0,0,0,0,0,0,0,0,0,0,0,0,0,0,0,0,0,0,0,0,0,0,0,0,0,0,0,0,0,0,0,0,0,0,0,0,0,0,0,0,0,0],"sum_hessian":[9.0615E4,3.8175E4,5.244E4,1.1037E4,2.7138E4,3.2591E4,1.9849E4,3.54E3,7.497E3,1.2164E4,1.4974E4,7.899E3,2.4692E4,3.736E3,1.6113E4,1.744E3,1.796E3,3.878E3,3.619E3,1.0836E4,1.328E3,6.096E3,8.878E3,5.287E3,2.612E3,9.666E3,1.5026E4,3.086E3,6.5E2,8.213E3,7.9E3,7.91E2,9.53E2,1.001E3,7.95E2,2.071E3,1.807E3,3.303E3,3.16E2,7.47E2,1.0089E4,1.183E3,1.45E2,8.21E2,5.275E3,1.718E3,7.16E3,9.16E2,4.371E3,1.181E3,1.431E3,4.491E3,5.175E3,5.32E3,9.706E3,1.818E3,1.268E3,2.37E2,4.13E2,1.683E3,6.53E3,2.748E3,5.152E3],"tree_param":{"num_deleted":"0","num_feature":"8","num_nodes":"63","size_leaf_vector":"1"}},{"base_weights":[2.3521918E-7,-2.1655874E0,1.5765048E0,-3.8726287E0,-1.4712182E0,8.1135845E-1,2.8327303E0,-4.9401736E0,-3.3679543E0,-2.158865E0,-9.125075E-1,1.9065807E0,4.6093255E-1,4.766943E0,2.3839908E0,-5.2775326E0,-4.609828E0,-3.7454224E0,-2.962549E0,-2.2552035E0,-1.3716717E0,-1.2565677E0,-6.761467E-1,9.5249194E-1,3.1769161E0,-1.9787903E-1,8.847211E-1,4.3296957E0,6.8330173E0,1.2325295E0,3.580766E0,-5.4690257E-2,-5.1130254E-2,-4.75194E-2,-4.4251468E-2,-3.956226E-2,-3.5017658E-2,-3.0225994E-2,-2.3273148E-2,-1.1746559E-2,-2.3350839E-2,-1.4434619E-2,-7.8008706E-3,-5.1074503E-3,-1.3725285E-2,2.4356015E-3,-8.968282E-3,2.5022395E-2,5.8748494E-3,2.434104E-2,3.7686117E-2,-4.9176184E-3,5.720588E-4,2.0342417E-2,3.6829382E-3,4.9817186E-2,3.391666E-2,7.71592E-2,6.30895E-2,2.195353E-2,9.840794E-3,5.2682016E-2,2.6059862E-2],"categories":[],"categories_nodes":[],"categories_segments":[],"categories_sizes":[],"default_left":[0,0,0,0,0,0,0,0,0,0,0,0,0,0,0,0,0,0,0,0,0,0,0,0,0,0,0,0,0,0,0,0,0,0,0,0,0,0,0,0,0,0,0,0,0,0,0,0,0,0,0,0,0,0,0,0,0,0,0,0,0,0,0],"id":1,"left_children":[1,3,5,7,9,11,13,15,17,19,21,23,25,27,29,31,33,35,37,39,41,43,45,47,49,51,53,55,57,59,61,-1,-1,-1,-1,-1,-1,-1,-1,-1,-1,-1,-1,-1,-1,-1,-1,-1,-1,-1,-1,-1,-1,-1,-1,-1,-1,-1,-1,-1,-1,-1,-1],"loss_changes":[3.0937178E5,4.5244953E4,5.040379E4,5.9302188E3,1.0424719E4,1.2507744E4,1.7217594E4,3.7029688E2,1.1363047E3,9.1946094E2,1.2169521E3,9.571875E3,6.8943833E3,3.3463594E3,2.2201328E4,2.7007812E1,2.6132812E1,1.8538672E2,1.3105273E2,9.3265234E2,5.531665E1,5.2660547E2,1.8023201E3,2.5513926E3,1.479918E3,7.2471545E2,8.919935E3,1.8711641E3,2.5253906E2,1.9627402E3,1.2982461E4,0E0,0E0,0E0,0E0,0E0,0E0,0E0,0E0,0E0,0E0,0E0,0E0,0E0,0E0,0E0,0E0,0E0,0E0,0E0,0E0,0E0,0E0,0E0,0E0,0E0,0E0,0E0,0E0,0E0,0E0,0E0,0E0],"parents":[2147483647,0,0,1,1,2,2,3,3,4,4,5,5,6,6,7,7,8,8,9,9,10,10,11,11,12,12,13,13,14,14,15,15,16,16,17,17,18,18,19,19,20,20,21,21,22,22,23,23,24,24,25,25,26,26,27,27,28,28,29,29,30,30],"right_children":[2,4,6,8,10,12,14,16,18,20,22,24,26,28,30,32,34,36,38,40,42,44,46,48,50,52,54,56,58,60,62,-1,-1,-1,-1,-1,-1,-1,-1,-1,-1,-1,-1,-1,-1,-1,-1,-1,-1,-1,-1,-1,-1,-1,-1,-1,-1,-1,-1,-1,-1,-1,-1],"split_conditions":[1.95E-1,7E-2,3.2E-1,3E-2,1.25E-1,3.3E-1,4.495E-1,5.45E-2,4.6E-2,2E0,1.55E-1,2.4E-1,2.55E-1,3.925E-1,4.1E-1,1E-2,2.25E-2,3.65E-2,2E0,1E0,1.2E-1,1.69E-1,2.29E-1,2.505E-1,2.6E-1,2.35E-1,4.04E-1,4.04E-1,4.03E-1,5.06E-1,6.36E-1,-5.4690257E-2,-5.1130254E-2,-4.75194E-2,-4.4251468E-2,-3.956226E-2,-3.5017658E-2,-3.0225994E-2,-2.3273148E-2,-1.1746559E-2,-2.3350839E-2,-1.4434619E-2,-7.8008706E-3,-5.1074503E-3,-1.3725285E-2,2.4356015E-3,-8.968282E-3,2.5022395E-2,5.8748494E-3,2.434104E-2,3.7686117E-2,-4.9176184E-3,5.720588E-4,2.0342417E-2,3.6829382E-3,4.9817186E-2,3.391666E-2,7.71592E-2,6.30895E-2,2.195353E-2,9.840794E-3,5.2682016E-2,2.6059862E-2],"split_indices":[7,7,7,7,7,5,5,4,7,0,7,7,7,7,7,7,7,7,0,0,7,5,5,5,7,7,5,5,5,5,5,0,0,0,0,0,0,0,0,0,0,0,0,0,0,0,0,0,0,0,0,0,0,0,0,0,0,0,0,0,0,0,0],"split_type":[0,0,0,0,0,0,0,0,0,0,0,0,0,0,0,0,0,0,0,0,0,0,0,0,0,0,0,0,0,0,0,0,0,0,0,0,0,0,0,0,0,0,0,0,0,0,0,0,0,0,0,0,0,0,0,0,0,0,0,0,0,0,0],"sum_hessian":[9.0615E4,3.8175E4,5.244E4,1.1037E4,2.7138E4,3.2591E4,1.9849E4,3.54E3,7.497E3,1.2164E4,1.4974E4,7.899E3,2.4692E4,3.736E3,1.6113E4,1.744E3,1.796E3,3.878E3,3.619E3,1.0836E4,1.328E3,6.096E3,8.878E3,4.512E3,3.387E3,9.666E3,1.5026E4,3.086E3,6.5E2,8.213E3,7.9E3,7.91E2,9.53E2,1.001E3,7.95E2,2.071E3,1.807E3,3.303E3,3.16E2,7.47E2,1.0089E4,1.183E3,1.45E2,8.21E2,5.275E3,1.718E3,7.16E3,8.59E2,3.653E3,1.504E3,1.883E3,4.491E3,5.175E3,4.657E3,1.0369E4,1.818E3,1.268E3,2.37E2,4.13E2,1.683E3,6.53E3,2.891E3,5.009E3],"tree_param":{"num_deleted":"0","num_feature":"8","num_nodes":"63","size_leaf_vector":"1"}},{"base_weights":[5.797232E-7,-2.1439424E0,1.5607482E0,-3.7020178E0,-1.3981024E0,8.0324817E-1,2.8044198E0,-4.5320363E0,-3.0110788E0,-2.0810907E0,-9.033841E-1,1.8875268E0,4.5632377E-1,4.719333E0,2.3601577E0,-5.036112E0,-4.050748E0,-3.353787E0,-2.7669635E0,-2.1781163E0,-1.2837806E0,-1.2440051E0,-6.6938597E-1,1.1209842E0,3.438078E0,-1.9590099E-1,8.758753E-1,4.286426E0,6.7649026E0,1.2202079E0,3.5449681E0,-5.2954867E-2,-4.7585458E-2,-4.3907866E-2,-3.916683E-2,-3.4006774E-2,-2.7648807E-2,-2.8421627E-2,-2.0599741E-2,-1.1386995E-2,-2.2591304E-2,-6.173849E-3,-1.3962173E-2,-5.0564343E-3,-1.3588059E-2,2.4112589E-3,-8.87861E-3,2.0643892E-2,6.059467E-3,4.0519483E-2,2.9289762E-2,-4.868458E-3,5.6633784E-4,1.9063063E-2,3.1094286E-3,4.931929E-2,3.3577763E-2,7.6390855E-2,6.2460124E-2,2.1734126E-2,9.7424E-3,5.283132E-2,2.617012E-2],"categories":[],"categories_nodes":[],"categories_segments":[],"categories_sizes":[],"default_left":[0,0,0,0,0,0,0,0,0,0,0,0,0,0,0,0,0,0,0,0,0,0,0,0,0,0,0,0,0,0,0,0,0,0,0,0,0,0,0,0,0,0,0,0,0,0,0,0,0,0,0,0,0,0,0,0,0,0,0,0,0,0,0],"id":2,"left_children":[1,3,5,7,9,11,13,15,17,19,21,23,25,27,29,31,33,35,37,39,41,43,45,47,49,51,53,55,57,59,61,-1,-1,-1,-1,-1,-1,-1,-1,-1,-1,-1,-1,-1,-1,-1,-1,-1,-1,-1,-1,-1,-1,-1,-1,-1,-1,-1,-1,-1,-1,-1,-1],"loss_changes":[3.032184E5,4.4358203E4,4.940142E4,7.0735625E3,8.72202E3,1.2259033E4,1.6875734E4,1.3411094E3,5.551758E2,8.3616797E2,1.1927451E3,9.385795E3,6.757211E3,3.2802734E3,2.1759625E4,1.7184375E2,1.1391406E2,6.797461E1,2.039336E2,8.1145703E2,8.7477295E1,5.1612305E2,1.7664624E3,2.568129E3,8.0475195E2,7.102978E2,8.746982E3,1.8339297E3,2.4758398E2,1.9237178E3,1.2730016E4,0E0,0E0,0E0,0E0,0E0,0E0,0E0,0E0,0E0,0E0,0E0,0E0,0E0,0E0,0E0,0E0,0E0,0E0,0E0,0E0,0E0,0E0,0E0,0E0,0E0,0E0,0E0,0E0,0E0,0E0,0E0,0E0],"parents":[2147483647,0,0,1,1,2,2,3,3,4,4,5,5,6,6,7,7,8,8,9,9,10,10,11,11,12,12,13,13,14,14,15,15,16,16,17,17,18,18,19,19,20,20,21,21,22,22,23,23,24,24,25,25,26,26,27,27,28,28,29,29,30,30],"right_children":[2,4,6,8,10,12,14,16,18,20,22,24,26,28,30,32,34,36,38,40,42,44,46,48,50,52,54,56,58,60,62,-1,-1,-1,-1,-1,-1,-1,-1,-1,-1,-1,-1,-1,-1,-1,-1,-1,-1,-1,-1,-1,-1,-1,-1,-1,-1,-1,-1,-1,-1,-1,-1],"split_conditions":[1.95E-1,7.5E-2,3.2E-1,3.65E-2,1.25E-1,3.3E-1,4.495E-1,2.25E-2,5.5E-2,2E0,1.55E-1,2.5E-1,2.55E-1,3.925E-1,4.1E-1,1.8E-2,3E-2,2E0,2E0,1E0,9.85E-2,1.69E-1,2.29E-1,2.765E-1,2.985E-1,2.35E-1,4.155E-1,4.04E-1,4.03E-1,5.06E-1,6.31E-1,-5.2954867E-2,-4.7585458E-2,-4.3907866E-2,-3.916683E-2,-3.4006774E-2,-2.7648807E-2,-2.8421627E-2,-2.0599741E-2,-1.1386995E-2,-2.2591304E-2,-6.173849E-3,-1.3962173E-2,-5.0564343E-3,-1.3588059E-2,2.4112589E-3,-8.87861E-3,2.0643892E-2,6.059467E-3,4.0519483E-2,2.9289762E-2,-4.868458E-3,5.6633784E-4,1.9063063E-2,3.1094286E-3,4.931929E-2,3.3577763E-2,7.6390855E-2,6.2460124E-2,2.1734126E-2,9.7424E-3,5.283132E-2,2.617012E-2],"split_indices":[7,7,7,7,7,5,5,7,7,0,7,7,7,7,7,5,7,0,0,0,5,5,5,5,5,7,5,5,5,5,5,0,0,0,0,0,0,0,0,0,0,0,0,0,0,0,0,0,0,0,0,0,0,0,0,0,0,0,0,0,0,0,0],"split_type":[0,0,0,0,0,0,0,0,0,0,0,0,0,0,0,0,0,0,0,0,0,0,0,0,0,0,0,0,0,0,0,0,0,0,0,0,0,0,0,0,0,0,0,0,0,0,0,0,0,0,0,0,0,0,0,0,0,0,0,0,0,0,0],"sum_hessian":[9.0615E4,3.8175E4,5.244E4,1.2357E4,2.5818E4,3.2591E4,1.9849E4,5.611E3,6.746E3,1.0844E4,1.4974E4,7.899E3,2.4692E4,3.736E3,1.6113E4,2.736E3,2.875E3,2.801E3,3.945E3,9.666E3,1.178E3,6.096E3,8.878E3,5.287E3,2.612E3,9.666E3,1.5026E4,3.086E3,6.5E2,8.213E3,7.9E3,1.405E3,1.331E3,8.04E2,2.071E3,2.59E3,2.11E2,3.563E3,3.82E2,7E2,8.966E3,1.71E2,1.007E3,8.21E2,5.275E3,1.718E3,7.16E3,1.866E3,3.421E3,1.181E3,1.431E3,4.491E3,5.175E3,5.32E3,9.706E3,1.818E3,1.268E3,2.37E2,4.13E2,1.683E3,6.53E3,2.748E3,5.152E3],"tree_param":{"num_deleted":"0","num_feature":"8","num_nodes":"63","size_leaf_vector":"1"}},{"base_weights":[1.4058845E-6,-2.1225126E0,1.5451492E0,-3.6650217E0,-1.3841243E0,7.9521924E-1,2.776392E0,-4.4867487E0,-2.9809844E0,-2.0602846E0,-8.9435184E-1,1.8487514E0,4.451721E-1,4.6721992E0,2.3365629E0,-4.9857874E0,-4.010269E0,-3.3499246E0,-2.7584229E0,-2.1563385E0,-1.2709601E0,-1.2315681E0,-6.6269267E-1,1.0838112E0,3.376821E0,-1.9958392E-1,8.561791E-1,4.2435884E0,6.697467E0,1.2080094E0,3.5095286E0,-5.2425697E-2,-4.710996E-2,-4.3284815E-2,-3.868498E-2,-3.4016956E-2,-2.7114902E-2,-2.8286533E-2,-2.0817034E-2,-1.127329E-2,-2.2365412E-2,-6.112467E-3,-1.3822693E-2,-5.593754E-3,-1.3553739E-2,2.387164E-3,-8.789836E-3,2.043756E-2,5.789405E-3,3.9694343E-2,2.848666E-2,4.639105E-4,-4.8828674E-3,1.8727843E-2,3.0783417E-3,4.882637E-2,3.3242248E-2,7.563015E-2,6.1837036E-2,2.1516912E-2,9.644987E-3,5.164043E-2,2.553767E-2],"categories":[],"categories_nodes":[],"categories_segments":[],"categories_sizes":[],"default_left":[0,0,0,0,0,0,0,0,0,0,0,0,0,0,0,0,0,0,0,0,0,0,0,0,0,0,0,0,0,0,0,0,0,0,0,0,0,0,0,0,0,0,0,0,0,0,0,0,0,0,0,0,0,0,0,0,0,0,0,0,0,0,0],"id":3,"left_children":[1,3,5,7,9,11,13,15,17,19,21,23,25,27,29,31,33,35,37,39,41,43,45,47,49,51,53,55,57,59,61,-1,-1,-1,-1,-1,-1,-1,-1,-1,-1,-1,-1,-1,-1,-1,-1,-1,-1,-1,-1,-1,-1,-1,-1,-1,-1,-1,-1,-1,-1,-1,-1],"loss_changes":[2.971873E5,4.3476266E4,4.8418984E4,6.9329688E3,8.5485E3,1.201865E4,1.6540625E4,1.3144297E3,5.447656E2,8.195E2,1.1690195E3,9.497012E3,6.4833774E3,3.2154922E3,2.1326734E4,1.6842969E2,1.13E2,7.45332E1,1.9438672E2,7.9529297E2,8.573157E1,5.066416E2,1.7313181E3,2.6246396E3,8.372129E2,6.7642773E2,8.328287E3,1.7974336E3,2.4272266E2,1.8854736E3,1.2480828E4,0E0,0E0,0E0,0E0,0E0,0E0,0E0,0E0,0E0,0E0,0E0,0E0,0E0,0E0,0E0,0E0,0E0,0E0,0E0,0E0,0E0,0E0,0E0,0E0,0E0,0E0,0E0,0E0,0E0,0E0,0E0,0E0],"parents":[2147483647,0,0,1,1,2,2,3,3,4,4,5,5,6,6,7,7,8,8,9,9,10,10,11,11,12,12,13,13,14,14,15,15,16,16,17,17,18,18,19,19,20,20,21,21,22,22,23,23,24,24,25,25,26,26,27,27,28,28,29,29,30,30],"right_children":[2,4,6,8,10,12,14,16,18,20,22,24,26,28,30,32,34,36,38,40,42,44,46,48,50,52,54,56,58,60,62,-1,-1,-1,-1,-1,-1,-1,-1,-1,-1,-1,-1,-1,-1,-1,-1,-1,-1,-1,-1,-1,-1,-1,-1,-1,-1,-1,-1,-1,-1,-1,-1],"split_conditions":[1.95E-1,7.5E-2,3.2E-1,3.65E-2,1.25E-1,3.315E-1,4.495E-1,2.25E-2,5.26E-2,2E0,1.55E-1,2.5E-1,2.55E-1,3.925E-1,4.1E-1,1.8E-2,9.4E-2,2E0,2E0,1E0,9.85E-2,1.71E-1,2.29E-1,2.765E-1,3.015E-1,3.92E-1,4.155E-1,4.04E-1,4.03E-1,5.06E-1,6.36E-1,-5.2425697E-2,-4.710996E-2,-4.3284815E-2,-3.868498E-2,-3.4016956E-2,-2.7114902E-2,-2.8286533E-2,-2.0817034E-2,-1.127329E-2,-2.2365412E-2,-6.112467E-3,-1.3822693E-2,-5.593754E-3,-1.3553739E-2,2.387164E-3,-8.789836E-3,2.043756E-2,5.789405E-3,3.9694343E-2,2.848666E-2,4.639105E-4,-4.8828674E-3,1.8727843E-2,3.0783417E-3,4.882637E-2,3.3242248E-2,7.563015E-2,6.1837036E-2,2.1516912E-2,9.644987E-3,5.164043E-2,2.553767E-2],"split_indices":[7,7,7,7,7,5,5,7,7,0,7,7,7,7,7,5,4,0,0,0,5,5,5,5,5,5,5,5,5,5,5,0,0,0,0,0,0,0,0,0,0,0,0,0,0,0,0,0,0,0,0,0,0,0,0,0,0,0,0,0,0,0,0],"split_type":[0,0,0,0,0,0,0,0,0,0,0,0,0,0,0,0,0,0,0,0,0,0,0,0,0,0,0,0,0,0,0,0,0,0,0,0,0,0,0,0,0,0,0,0,0,0,0,0,0,0,0,0,0,0,0,0,0,0,0,0,0,0,0],"sum_hessian":[9.0615E4,3.8175E4,5.244E4,1.2357E4,2.5818E4,3.2591E4,1.9849E4,5.611E3,6.746E3,1.0844E4,1.4974E4,8.127E3,2.4464E4,3.736E3,1.6113E4,2.736E3,2.875E3,2.533E3,4.213E3,9.666E3,1.178E3,6.096E3,8.878E3,5.417E3,2.71E3,9.524E3,1.494E4,3.086E3,6.5E2,8.213E3,7.9E3,1.405E3,1.331E3,8.77E2,1.998E3,2.339E3,1.94E2,3.814E3,3.99E2,7E2,8.966E3,1.71E2,1.007E3,9.49E2,5.147E3,1.718E3,7.16E3,1.866E3,3.551E3,1.274E3,1.436E3,5.143E3,4.381E3,5.234E3,9.706E3,1.818E3,1.268E3,2.37E2,4.13E2,1.683E3,6.53E3,2.891E3,5.009E3],"tree_param":{"num_deleted":"0","num_feature":"8","num_nodes":"63","size_leaf_vector":"1"}},{"base_weights":[2.1158992E-6,-2.1012971E0,1.529706E0,-3.7580786E0,-1.4273721E0,7.872704E-1,2.7486446E0,-4.793983E0,-3.2683618E0,-2.094405E0,-8.8541E-1,1.8302754E0,4.4072104E-1,4.625536E0,2.3132038E0,-5.121864E0,-4.472923E0,-3.6347532E0,-2.8748534E0,-2.1878734E0,-1.3306636E0,-1.2192558E0,-6.560663E-1,1.0729778E0,3.3430781E0,-1.9758834E-1,8.476185E-1,4.2011795E0,6.6307034E0,1.1959327E0,3.4744432E0,-5.3095754E-2,-4.9606588E-2,-4.6079054E-2,-4.2922325E-2,-3.838092E-2,-3.3997126E-2,-2.9330103E-2,-2.2596302E-2,-1.1381558E-2,-2.265475E-2,-1.4017898E-2,-7.4474537E-3,-4.9500666E-3,-1.3318625E-2,2.3633076E-3,-8.7019475E-3,2.0233298E-2,5.731524E-3,3.9297707E-2,2.8201997E-2,-4.847708E-3,4.979303E-4,1.961584E-2,3.5640367E-3,4.8338372E-2,3.291009E-2,7.487702E-2,6.1220158E-2,2.1301873E-2,9.548547E-3,5.1786978E-2,2.5645904E-2],"categories":[],"categories_nodes":[],"categories_segments":[],"categories_sizes":[],"default_left":[0,0,0,0,0,0,0,0,0,0,0,0,0,0,0,0,0,0,0,0,0,0,0,0,0,0,0,0,0,0,0,0,0,0,0,0,0,0,0,0,0,0,0,0,0,0,0,0,0,0,0,0,0,0,0,0,0,0,0,0,0,0,0],"id":4,"left_children":[1,3,5,7,9,11,13,15,17,19,21,23,25,27,29,31,33,35,37,39,41,43,45,47,49,51,53,55,57,59,61,-1,-1,-1,-1,-1,-1,-1,-1,-1,-1,-1,-1,-1,-1,-1,-1,-1,-1,-1,-1,-1,-1,-1,-1,-1,-1,-1,-1,-1,-1,-1,-1],"loss_changes":[2.912762E5,4.261992E4,4.745607E4,5.5838906E3,9.80907E3,1.177966E4,1.6212219E4,3.4985938E2,1.0705938E3,8.654961E2,1.1457676E3,9.308189E3,6.354376E3,3.1519766E3,2.090246E4,2.6464844E1,2.4050781E1,1.7234375E2,1.22896484E2,8.802031E2,5.4341064E1,4.9658398E2,1.6968728E3,2.5724443E3,8.2056836E2,6.7671436E2,8.174963E3,1.7616719E3,2.3796094E2,1.8479902E3,1.2238172E4,0E0,0E0,0E0,0E0,0E0,0E0,0E0,0E0,0E0,0E0,0E0,0E0,0E0,0E0,0E0,0E0,0E0,0E0,0E0,0E0,0E0,0E0,0E0,0E0,0E0,0E0,0E0,0E0,0E0,0E0,0E0,0E0],"parents":[2147483647,0,0,1,1,2,2,3,3,4,4,5,5,6,6,7,7,8,8,9,9,10,10,11,11,12,12,13,13,14,14,15,15,16,16,17,17,18,18,19,19,20,20,21,21,22,22,23,23,24,24,25,25,26,26,27,27,28,28,29,29,30,30],"right_children":[2,4,6,8,10,12,14,16,18,20,22,24,26,28,30,32,34,36,38,40,42,44,46,48,50,52,54,56,58,60,62,-1,-1,-1,-1,-1,-1,-1,-1,-1,-1,-1,-1,-1,-1,-1,-1,-1,-1,-1,-1,-1,-1,-1,-1,-1,-1,-1,-1,-1,-1,-1,-1],"split_conditions":[1.95E-1,7E-2,3.2E-1,3E-2,1.25E-1,3.315E-1,4.495E-1,5.45E-2,4.6E-2,2E0,1.55E-1,2.5E-1,2.55E-1,3.925E-1,4.1E-1,1E-2,7.95E-2,3.65E-2,2E0,1E0,1.2E-1,1.69E-1,2.29E-1,2.765E-1,3.015E-1,2.35E-1,4.04E-1,4.04E-1,4.03E-1,5.06E-1,6.31E-1,-5.3095754E-2,-4.9606588E-2,-4.6079054E-2,-4.2922325E-2,-3.838092E-2,-3.3997126E-2,-2.9330103E-2,-2.2596302E-2,-1.1381558E-2,-2.265475E-2,-1.4017898E-2,-7.4474537E-3,-4.9500666E-3,-1.3318625E-2,2.3633076E-3,-8.7019475E-3,2.0233298E-2,5.731524E-3,3.9297707E-2,2.8201997E-2,-4.847708E-3,4.979303E-4,1.961584E-2,3.5640367E-3,4.8338372E-2,3.291009E-2,7.487702E-2,6.1220158E-2,2.1301873E-2,9.548547E-3,5.1786978E-2,2.5645904E-2],"split_indices":[7,7,7,7,7,5,5,4,7,0,7,7,7,7,7,7,4,7,0,0,7,5,5,5,5,7,5,5,5,5,5,0,0,0,0,0,0,0,0,0,0,0,0,0,0,0,0,0,0,0,0,0,0,0,0,0,0,0,0,0,0,0,0],"split_type":[0,0,0,0,0,0,0,0,0,0,0,0,0,0,0,0,0,0,0,0,0,0,0,0,0,0,0,0,0,0,0,0,0,0,0,0,0,0,0,0,0,0,0,0,0,0,0,0,0,0,0,0,0,0,0,0,0,0,0,0,0,0,0],"sum_hessian":[9.0615E4,3.8175E4,5.244E4,1.1037E4,2.7138E4,3.2591E4,1.9849E4,3.54E3,7.497E3,1.2164E4,1.4974E4,8.127E3,2.4464E4,3.736E3,1.6113E4,1.744E3,1.796E3,3.878E3,3.619E3,1.0836E4,1.328E3,6.096E3,8.878E3,5.417E3,2.71E3,9.524E3,1.494E4,3.086E3,6.5E2,8.213E3,7.9E3,7.91E2,9.53E2,1.014E3,7.82E2,2.071E3,1.807E3,3.303E3,3.16E2,7.47E2,1.0089E4,1.183E3,1.45E2,8.21E2,5.275E3,1.718E3,7.16E3,1.866E3,3.551E3,1.274E3,1.436E3,4.407E3,5.117E3,4.571E3,1.0369E4,1.818E3,1.268E3,2.37E2,4.13E2,1.683E3,6.53E3,2.748E3,5.152E3],"tree_param":{"num_deleted":"0","num_feature":"8","num_nodes":"63","size_leaf_vector":"1"}},{"base_weights":[2.5745608E-6,-2.0802946E0,1.5144173E0,-3.592582E0,-1.3563731E0,7.794012E-1,2.7211745E0,-4.3975363E0,-2.922507E0,-2.0187876E0,-8.7655723E-1,1.8317279E0,4.427001E-1,4.579339E0,2.2900784E0,-4.886953E0,-3.9302444E0,-3.2552097E0,-2.6855187E0,-2.1129425E0,-1.2450695E0,-1.2070658E0,-6.4950603E-1,9.092718E-1,3.0599487E0,-1.9025514E-1,8.498562E-1,4.159194E0,6.5646057E0,1.1839774E0,3.4397082E0,-5.138834E-2,-4.617409E-2,-4.2431556E-2,-3.7908416E-2,-3.30089E-2,-2.6815604E-2,-2.7584884E-2,-1.9994883E-2,-1.1047067E-2,-2.191526E-2,-5.912336E-3,-1.3554015E-2,-5.4771514E-3,-1.3285063E-2,2.3396893E-3,-8.614938E-3,2.4160028E-2,5.5440096E-3,2.3452632E-2,3.6292385E-2,-4.7590514E-3,5.768344E-4,1.9561693E-2,3.5284015E-3,4.785526E-2,3.2581244E-2,7.413141E-2,6.0609434E-2,2.1088976E-2,9.45308E-3,5.0619435E-2,2.5025934E-2],"categories":[],"categories_nodes":[],"categories_segments":[],"categories_sizes":[],"default_left":[0,0,0,0,0,0,0,0,0,0,0,0,0,0,0,0,0,0,0,0,0,0,0,0,0,0,0,0,0,0,0,0,0,0,0,0,0,0,0,0,0,0,0,0,0,0,0,0,0,0,0,0,0,0,0,0,0,0,0,0,0,0,0],"id":5,"left_children":[1,3,5,7,9,11,13,15,17,19,21,23,25,27,29,31,33,35,37,39,41,43,45,47,49,51,53,55,57,59,61,-1,-1,-1,-1,-1,-1,-1,-1,-1,-1,-1,-1,-1,-1,-1,-1,-1,-1,-1,-1,-1,-1,-1,-1,-1,-1,-1,-1,-1,-1,-1,-1],"loss_changes":[2.8548275E5,4.1789344E4,4.651232E4,6.6528125E3,8.204461E3,1.1547174E4,1.5890297E4,1.2642578E3,5.232383E2,7.874219E2,1.1229746E3,8.947758E3,6.363834E3,3.0897266E3,2.0486594E4,1.6209375E2,1.0937109E2,6.457422E1,1.9201953E2,7.635039E2,8.425049E1,4.874707E2,1.6631123E3,2.4117393E3,1.3699395E3,6.846798E2,8.261988E3,1.7266133E3,2.3328906E2,1.811249E3,1.1998594E4,0E0,0E0,0E0,0E0,0E0,0E0,0E0,0E0,0E0,0E0,0E0,0E0,0E0,0E0,0E0,0E0,0E0,0E0,0E0,0E0,0E0,0E0,0E0,0E0,0E0,0E0,0E0,0E0,0E0,0E0,0E0,0E0],"parents":[2147483647,0,0,1,1,2,2,3,3,4,4,5,5,6,6,7,7,8,8,9,9,10,10,11,11,12,12,13,13,14,14,15,15,16,16,17,17,18,18,19,19,20,20,21,21,22,22,23,23,24,24,25,25,26,26,27,27,28,28,29,29,30,30],"right_children":[2,4,6,8,10,12,14,16,18,20,22,24,26,28,30,32,34,36,38,40,42,44,46,48,50,52,54,56,58,60,62,-1,-1,-1,-1,-1,-1,-1,-1,-1,-1,-1,-1,-1,-1,-1,-1,-1,-1,-1,-1,-1,-1,-1,-1,-1,-1,-1,-1,-1,-1,-1,-1],"split_conditions":[1.95E-1,7.5E-2,3.2E-1,3.65E-2,1.25E-1,3.3E-1,4.495E-1,2.25E-2,5.5E-2,2E0,1.55E-1,2.4E-1,2.55E-1,3.925E-1,4.1E-1,1.8E-2,9.4E-2,2E0,2E0,1E0,9.85E-2,1.71E-1,2.29E-1,2.505E-1,2.6E-1,2.35E-1,4.04E-1,4.04E-1,4.03E-1,5.06E-1,6.36E-1,-5.138834E-2,-4.617409E-2,-4.2431556E-2,-3.7908416E-2,-3.30089E-2,-2.6815604E-2,-2.7584884E-2,-1.9994883E-2,-1.1047067E-2,-2.191526E-2,-5.912336E-3,-1.3554015E-2,-5.4771514E-3,-1.3285063E-2,2.3396893E-3,-8.614938E-3,2.4160028E-2,5.5440096E-3,2.3452632E-2,3.6292385E-2,-4.7590514E-3,5.768344E-4,1.9561693E-2,3.5284015E-3,4.785526E-2,3.2581244E-2,7.413141E-2,6.0609434E-2,2.1088976E-2,9.45308E-3,5.0619435E-2,2.5025934E-2],"split_indices":[7,7,7,7,7,5,5,7,7,0,7,7,7,7,7,5,4,0,0,0,5,5,5,5,7,7,5,5,5,5,5,0,0,0,0,0,0,0,0,0,0,0,0,0,0,0,0,0,0,0,0,0,0,0,0,0,0,0,0,0,0,0,0],"split_type":[0,0,0,0,0,0,0,0,0,0,0,0,0,0,0,0,0,0,0,0,0,0,0,0,0,0,0,0,0,0,0,0,0,0,0,0,0,0,0,0,0,0,0,0,0,0,0,0,0,0,0,0,0,0,0,0,0,0,0,0,0,0,0],"sum_hessian":[9.0615E4,3.8175E4,5.244E4,1.2357E4,2.5818E4,3.2591E4,1.9849E4,5.611E3,6.746E3,1.0844E4,1.4974E4,7.899E3,2.4692E4,3.736E3,1.6113E4,2.736E3,2.875E3,2.801E3,3.945E3,9.666E3,1.178E3,6.096E3,8.878E3,4.512E3,3.387E3,9.666E3,1.5026E4,3.086E3,6.5E2,8.213E3,7.9E3,1.405E3,1.331E3,8.77E2,1.998E3,2.59E3,2.11E2,3.563E3,3.82E2,7E2,8.966E3,1.71E2,1.007E3,9.49E2,5.147E3,1.718E3,7.16E3,8.59E2,3.653E3,1.504E3,1.883E3,4.491E3,5.175E3,4.657E3,1.0369E4,1.818E3,1.268E3,2.37E2,4.13E2,1.683E3,6.53E3,2.891E3,5.009E3],"tree_param":{"num_deleted":"0","num_feature":"8","num_nodes":"63","size_leaf_vector":"1"}},{"base_weights":[3.2395205E-6,-2.0595012E0,1.4992813E0,-3.5566792E0,-1.3428125E0,7.716104E-1,2.693979E0,-4.3535924E0,-2.893298E0,-1.9986045E0,-8.677936E-1,1.7940298E0,4.3190074E-1,4.533603E0,2.2671843E0,-4.8381186E0,-3.8909698E0,-3.2514594E0,-2.6772385E0,-2.0918164E0,-1.2326356E0,-1.1949986E0,-6.430119E-1,1.0513988E0,3.2775347E0,-1.937211E-1,8.307105E-1,4.117628E0,6.4991665E0,1.1721416E0,3.4053204E0,-5.0874818E-2,-4.5712695E-2,-4.220472E-2,-3.7610758E-2,-3.3020306E-2,-2.6279304E-2,-2.7453028E-2,-2.0213809E-2,-1.0936751E-2,-2.1696134E-2,-5.8535514E-3,-1.3418613E-2,-4.8459186E-3,-1.3054533E-2,2.3163091E-3,-8.528804E-3,2.7803501E-2,7.845591E-3,3.8999908E-2,2.7945146E-2,5.053626E-4,-4.804089E-3,1.8189527E-2,2.9766432E-3,4.737697E-2,3.2255687E-2,7.339321E-2,6.00048E-2,2.0878214E-2,9.358566E-3,5.0763287E-2,2.5132174E-2],"categories":[],"categories_nodes":[],"categories_segments":[],"categories_sizes":[],"default_left":[0,0,0,0,0,0,0,0,0,0,0,0,0,0,0,0,0,0,0,0,0,0,0,0,0,0,0,0,0,0,0,0,0,0,0,0,0,0,0,0,0,0,0,0,0,0,0,0,0,0,0,0,0,0,0,0,0,0,0,0,0,0,0],"id":6,"left_children":[1,3,5,7,9,11,13,15,17,19,21,23,25,27,29,31,33,35,37,39,41,43,45,47,49,51,53,55,57,59,61,-1,-1,-1,-1,-1,-1,-1,-1,-1,-1,-1,-1,-1,-1,-1,-1,-1,-1,-1,-1,-1,-1,-1,-1,-1,-1,-1,-1,-1,-1,-1,-1],"loss_changes":[2.7980444E5,4.095847E4,4.558732E4,6.5205625E3,8.0412383E3,1.1319266E4,1.5574797E4,1.2391172E3,5.1341016E2,7.7172656E2,1.1006377E3,8.951146E3,6.1042783E3,3.0286953E3,2.0079008E4,1.588711E2,1.0722266E2,7.122656E1,1.825664E2,7.482969E2,8.25697E1,4.7778613E2,1.6300266E3,2.4974282E3,8.041875E2,6.670182E2,7.8700596E3,1.6922617E3,2.2871484E2,1.7752383E3,1.1765352E4,0E0,0E0,0E0,0E0,0E0,0E0,0E0,0E0,0E0,0E0,0E0,0E0,0E0,0E0,0E0,0E0,0E0,0E0,0E0,0E0,0E0,0E0,0E0,0E0,0E0,0E0,0E0,0E0,0E0,0E0,0E0,0E0],"parents":[2147483647,0,0,1,1,2,2,3,3,4,4,5,5,6,6,7,7,8,8,9,9,10,10,11,11,12,12,13,13,14,14,15,15,16,16,17,17,18,18,19,19,20,20,21,21,22,22,23,23,24,24,25,25,26,26,27,27,28,28,29,29,30,30],"right_children":[2,4,6,8,10,12,14,16,18,20,22,24,26,28,30,32,34,36,38,40,42,44,46,48,50,52,54,56,58,60,62,-1,-1,-1,-1,-1,-1,-1,-1,-1,-1,-1,-1,-1,-1,-1,-1,-1,-1,-1,-1,-1,-1,-1,-1,-1,-1,-1,-1,-1,-1,-1,-1],"split_conditions":[1.95E-1,7.5E-2,3.2E-1,3.65E-2,1.25E-1,3.315E-1,4.495E-1,2.25E-2,5.26E-2,2E0,1.55E-1,2.5E-1,2.55E-1,3.925E-1,4.1E-1,1.8E-2,3E-2,2E0,2E0,1E0,9.85E-2,1.69E-1,2.29E-1,2.435E-1,2.985E-1,3.92E-1,4.155E-1,4.04E-1,4.03E-1,5.06E-1,6.31E-1,-5.0874818E-2,-4.5712695E-2,-4.220472E-2,-3.7610758E-2,-3.3020306E-2,-2.6279304E-2,-2.7453028E-2,-2.0213809E-2,-1.0936751E-2,-2.1696134E-2,-5.8535514E-3,-1.3418613E-2,-4.8459186E-3,-1.3054533E-2,2.3163091E-3,-8.528804E-3,2.7803501E-2,7.845591E-3,3.8999908E-2,2.7945146E-2,5.053626E-4,-4.804089E-3,1.8189527E-2,2.9766432E-3,4.737697E-2,3.2255687E-2,7.339321E-2,6.00048E-2,2.0878214E-2,9.358566E-3,5.0763287E-2,2.5132174E-2],"split_indices":[7,7,7,7,7,5,5,7,7,0,7,7,7,7,7,5,7,0,0,0,5,5,5,5,5,5,5,5,5,5,5,0,0,0,0,0,0,0,0,0,0,0,0,0,0,0,0,0,0,0,0,0,0,0,0,0,0,0,0,0,0,0,0],"split_type":[0,0,0,0,0,0,0,0,0,0,0,0,0,0,0,0,0,0,0,0,0,0,0,0,0,0,0,0,0,0,0,0,0,0,0,0,0,0,0,0,0,0,0,0,0,0,0,0,0,0,0,0,0,0,0,0,0,0,0,0,0,0,0],"sum_hessian":[9.0615E4,3.8175E4,5.244E4,1.2357E4,2.5818E4,3.2591E4,1.9849E4,5.611E3,6.746E3,1.0844E4,1.4974E4,8.127E3,2.4464E4,3.736E3,1.6113E4,2.736E3,2.875E3,2.533E3,4.213E3,9.666E3,1.178E3,6.096E3,8.878E3,5.417E3,2.71E3,9.524E3,1.494E4,3.086E3,6.5E2,8.213E3,7.9E3,1.405E3,1.331E3,8.04E2,2.071E3,2.339E3,1.94E2,3.814E3,3.99E2,7E2,8.966E3,1.71E2,1.007E3,8.21E2,5.275E3,1.718E3,7.16E3,7.23E2,4.694E3,1.181E3,1.529E3,5.143E3,4.381E3,5.234E3,9.706E3,1.818E3,1.268E3,2.37E2,4.13E2,1.683E3,6.53E3,2.748E3,5.152E3],"tree_param":{"num_deleted":"0","num_feature":"8","num_nodes":"63","size_leaf_vector":"1"}},{"base_weights":[4.1009703E-6,-2.0389156E0,1.4842968E0,-3.646916E0,-1.384833E0,7.6389796E-1,2.6670554E0,-4.6521196E0,-3.1717129E0,-2.0318701E0,-8.5911727E-1,1.7954526E0,4.3384302E-1,4.488324E0,2.2445192E0,-4.9707966E0,-4.3400755E0,-3.527361E0,-2.789743E0,-2.1225538E0,-1.2908839E0,-1.1830513E0,-6.365827E-1,8.894451E-1,3.0017738E0,-1.8658532E-1,8.329411E-1,4.0764775E0,6.4343796E0,1.1604241E0,3.3712769E0,-5.1548183E-2,-4.8128128E-2,-4.471594E-2,-4.1640453E-2,-3.723483E-2,-3.3006504E-2,-2.8460631E-2,-2.1939337E-2,-1.1027583E-2,-2.1979436E-2,-1.3613535E-2,-7.105621E-3,-5.3629735E-3,-1.3021719E-2,2.2931579E-3,-8.443529E-3,2.3688335E-2,5.4101506E-3,2.3008356E-2,3.560112E-2,-4.6981615E-3,5.9253094E-4,1.918246E-2,3.453631E-3,4.6903465E-2,3.1933382E-2,7.266237E-2,5.94062E-2,2.066956E-2,9.264996E-3,4.9618635E-2,2.452445E-2],"categories":[],"categories_nodes":[],"categories_segments":[],"categories_sizes":[],"default_left":[0,0,0,0,0,0,0,0,0,0,0,0,0,0,0,0,0,0,0,0,0,0,0,0,0,0,0,0,0,0,0,0,0,0,0,0,0,0,0,0,0,0,0,0,0,0,0,0,0,0,0,0,0,0,0,0,0,0,0,0,0,0,0],"id":7,"left_children":[1,3,5,7,9,11,13,15,17,19,21,23,25,27,29,31,33,35,37,39,41,43,45,47,49,51,53,55,57,59,61,-1,-1,-1,-1,-1,-1,-1,-1,-1,-1,-1,-1,-1,-1,-1,-1,-1,-1,-1,-1,-1,-1,-1,-1,-1,-1,-1,-1,-1,-1,-1,-1],"loss_changes":[2.742391E5,4.014714E4,4.4680734E4,5.257828E3,9.229793E3,1.1095807E4,1.5265531E4,3.3054688E2,1.0087422E3,8.146875E2,1.0787432E3,8.631525E3,6.1144326E3,2.9688828E3,1.9679547E4,2.5925781E1,2.2984375E1,1.601836E2,1.1522656E2,8.307539E2,5.338208E1,4.690254E2,1.5975964E3,2.3250051E3,1.3177383E3,6.731316E2,7.9511875E3,1.658582E3,2.2422461E2,1.7399453E3,1.1535E4,0E0,0E0,0E0,0E0,0E0,0E0,0E0,0E0,0E0,0E0,0E0,0E0,0E0,0E0,0E0,0E0,0E0,0E0,0E0,0E0,0E0,0E0,0E0,0E0,0E0,0E0,0E0,0E0,0E0,0E0,0E0,0E0],"parents":[2147483647,0,0,1,1,2,2,3,3,4,4,5,5,6,6,7,7,8,8,9,9,10,10,11,11,12,12,13,13,14,14,15,15,16,16,17,17,18,18,19,19,20,20,21,21,22,22,23,23,24,24,25,25,26,26,27,27,28,28,29,29,30,30],"right_children":[2,4,6,8,10,12,14,16,18,20,22,24,26,28,30,32,34,36,38,40,42,44,46,48,50,52,54,56,58,60,62,-1,-1,-1,-1,-1,-1,-1,-1,-1,-1,-1,-1,-1,-1,-1,-1,-1,-1,-1,-1,-1,-1,-1,-1,-1,-1,-1,-1,-1,-1,-1,-1],"split_conditions":[1.95E-1,7E-2,3.2E-1,3E-2,1.25E-1,3.3E-1,4.495E-1,5.45E-2,4.6E-2,2E0,1.55E-1,2.4E-1,2.55E-1,3.925E-1,4.1E-1,1E-2,7.95E-2,3.65E-2,2E0,1E0,1.2E-1,1.71E-1,2.29E-1,2.505E-1,2.6E-1,2.35E-1,4.04E-1,4.04E-1,4.03E-1,5.06E-1,6.36E-1,-5.1548183E-2,-4.8128128E-2,-4.471594E-2,-4.1640453E-2,-3.723483E-2,-3.3006504E-2,-2.8460631E-2,-2.1939337E-2,-1.1027583E-2,-2.1979436E-2,-1.3613535E-2,-7.105621E-3,-5.3629735E-3,-1.3021719E-2,2.2931579E-3,-8.443529E-3,2.3688335E-2,5.4101506E-3,2.3008356E-2,3.560112E-2,-4.6981615E-3,5.9253094E-4,1.918246E-2,3.453631E-3,4.6903465E-2,3.1933382E-2,7.266237E-2,5.94062E-2,2.066956E-2,9.264996E-3,4.9618635E-2,2.452445E-2],"split_indices":[7,7,7,7,7,5,5,4,7,0,7,7,7,7,7,7,4,7,0,0,7,5,5,5,7,7,5,5,5,5,5,0,0,0,0,0,0,0,0,0,0,0,0,0,0,0,0,0,0,0,0,0,0,0,0,0,0,0,0,0,0,0,0],"split_type":[0,0,0,0,0,0,0,0,0,0,0,0,0,0,0,0,0,0,0,0,0,0,0,0,0,0,0,0,0,0,0,0,0,0,0,0,0,0,0,0,0,0,0,0,0,0,0,0,0,0,0,0,0,0,0,0,0,0,0,0,0,0,0],"sum_hessian":[9.0615E4,3.8175E4,5.244E4,1.1037E4,2.7138E4,3.2591E4,1.9849E4,3.54E3,7.497E3,1.2164E4,1.4974E4,7.899E3,2.4692E4,3.736E3,1.6113E4,1.744E3,1.796E3,3.878E3,3.619E3,1.0836E4,1.328E3,6.096E3,8.878E3,4.512E3,3.387E3,9.666E3,1.5026E4,3.086E3,6.5E2,8.213E3,7.9E3,7.91E2,9.53E2,1.014E3,7.82E2,2.071E3,1.807E3,3.303E3,3.16E2,7.47E2,1.0089E4,1.183E3,1.45E2,9.49E2,5.147E3,1.718E3,7.16E3,8.59E2,3.653E3,1.504E3,1.883E3,4.491E3,5.175E3,4.657E3,1.0369E4,1.818E3,1.268E3,2.37E2,4.13E2,1.683E3,6.53E3,2.891E3,5.009E3],"tree_param":{"num_deleted":"0","num_feature":"8","num_nodes":"63","size_leaf_vector":"1"}},{"base_weights":[4.4860035E-6,-2.0185366E0,1.469462E0,-3.4863818E0,-1.3158892E0,7.5626236E-1,2.6404006E0,-4.424515E0,-2.9448168E0,-1.9583486E0,-8.5052776E-1,1.7585034E0,4.2325723E-1,4.443497E0,2.2220805E0,-4.855825E0,-4.0419993E0,-3.3700116E0,-2.6571808E0,-2.0497177E0,-1.2075242E0,-1.0716629E0,-5.289745E-1,8.5867304E-1,2.9368095E0,-1.8992917E-1,8.1413984E-1,4.035738E0,6.3702383E0,1.1488234E0,3.3375733E0,-5.1050976E-2,-4.703015E-2,-4.2486124E-2,-3.7746225E-2,-3.5694018E-2,-3.1983163E-2,-2.7229598E-2,-2.02662E-2,-1.0717424E-2,-2.1259427E-2,-5.66001E-3,-1.3157924E-2,-2.9473337E-3,-1.1606408E-2,6.8851947E-3,-7.285008E-3,2.3451729E-2,5.1763104E-3,2.235841E-2,3.4893878E-2,5.225349E-4,-4.741824E-3,1.6321616E-2,1.9238587E-3,4.643469E-2,3.1614292E-2,7.19388E-2,5.8813572E-2,2.0462984E-2,9.172361E-3,4.975983E-2,2.4628738E-2],"categories":[],"categories_nodes":[],"categories_segments":[],"categories_sizes":[],"default_left":[0,0,0,0,0,0,0,0,0,0,0,0,0,0,0,0,0,0,0,0,0,0,0,0,0,0,0,0,0,0,0,0,0,0,0,0,0,0,0,0,0,0,0,0,0,0,0,0,0,0,0,0,0,0,0,0,0,0,0,0,0,0,0],"id":8,"left_children":[1,3,5,7,9,11,13,15,17,19,21,23,25,27,29,31,33,35,37,39,41,43,45,47,49,51,53,55,57,59,61,-1,-1,-1,-1,-1,-1,-1,-1,-1,-1,-1,-1,-1,-1,-1,-1,-1,-1,-1,-1,-1,-1,-1,-1,-1,-1,-1,-1,-1,-1,-1,-1],"loss_changes":[2.6878453E5,3.9369297E4,4.3792164E4,6.2655625E3,7.71759E3,1.0876883E4,1.4962422E4,7.262656E2,9.4964844E2,7.415156E2,1.0642559E3,8.615398E3,5.8640205E3,2.91025E3,1.9288016E4,5.6746094E1,1.1665625E2,9.672656E1,1.8859375E2,7.183633E2,8.114465E1,6.1297656E2,1.4832982E3,2.335866E3,1.3552461E3,6.5573724E2,7.5988047E3,1.625582E3,2.1982422E2,1.7053516E3,1.1310797E4,0E0,0E0,0E0,0E0,0E0,0E0,0E0,0E0,0E0,0E0,0E0,0E0,0E0,0E0,0E0,0E0,0E0,0E0,0E0,0E0,0E0,0E0,0E0,0E0,0E0,0E0,0E0,0E0,0E0,0E0,0E0,0E0],"parents":[2147483647,0,0,1,1,2,2,3,3,4,4,5,5,6,6,7,7,8,8,9,9,10,10,11,11,12,12,13,13,14,14,15,15,16,16,17,17,18,18,19,19,20,20,21,21,22,22,23,23,24,24,25,25,26,26,27,27,28,28,29,29,30,30],"right_children":[2,4,6,8,10,12,14,16,18,20,22,24,26,28,30,32,34,36,38,40,42,44,46,48,50,52,54,56,58,60,62,-1,-1,-1,-1,-1,-1,-1,-1,-1,-1,-1,-1,-1,-1,-1,-1,-1,-1,-1,-1,-1,-1,-1,-1,-1,-1,-1,-1,-1,-1,-1,-1],"split_conditions":[1.95E-1,7.5E-2,3.2E-1,1.075E-1,1.25E-1,3.315E-1,4.495E-1,6.4E-2,5E-2,2E0,1.7E-1,2.4E-1,2.55E-1,3.925E-1,4.1E-1,1E-2,3E-2,4E-2,2E0,1E0,9.85E-2,1.69E-1,2.29E-1,2.505E-1,2.6E-1,3.92E-1,4.315E-1,4.04E-1,4.03E-1,5.06E-1,6.31E-1,-5.1050976E-2,-4.703015E-2,-4.2486124E-2,-3.7746225E-2,-3.5694018E-2,-3.1983163E-2,-2.7229598E-2,-2.02662E-2,-1.0717424E-2,-2.1259427E-2,-5.66001E-3,-1.3157924E-2,-2.9473337E-3,-1.1606408E-2,6.8851947E-3,-7.285008E-3,2.3451729E-2,5.1763104E-3,2.235841E-2,3.4893878E-2,5.225349E-4,-4.741824E-3,1.6321616E-2,1.9238587E-3,4.643469E-2,3.1614292E-2,7.19388E-2,5.8813572E-2,2.0462984E-2,9.172361E-3,4.975983E-2,2.4628738E-2],"split_indices":[7,7,7,4,7,5,5,4,7,0,7,7,7,7,7,7,7,7,0,0,5,5,5,5,7,5,5,5,5,5,5,0,0,0,0,0,0,0,0,0,0,0,0,0,0,0,0,0,0,0,0,0,0,0,0,0,0,0,0,0,0,0,0],"split_type":[0,0,0,0,0,0,0,0,0,0,0,0,0,0,0,0,0,0,0,0,0,0,0,0,0,0,0,0,0,0,0,0,0,0,0,0,0,0,0,0,0,0,0,0,0,0,0,0,0,0,0,0,0,0,0,0,0,0,0,0,0,0,0],"sum_hessian":[9.0615E4,3.8175E4,5.244E4,1.2357E4,2.5818E4,3.2591E4,1.9849E4,4.52E3,7.837E3,1.0844E4,1.4974E4,8.127E3,2.4464E4,3.736E3,1.6113E4,2.119E3,2.401E3,3.158E3,4.679E3,9.666E3,1.178E3,8.871E3,6.103E3,4.609E3,3.518E3,9.524E3,1.494E4,3.086E3,6.5E2,8.213E3,7.9E3,7.93E2,1.326E3,1.346E3,1.055E3,1.452E3,1.706E3,4.234E3,4.45E2,7E2,8.966E3,1.71E2,1.007E3,9.12E2,7.959E3,8.59E2,5.244E3,8.59E2,3.75E3,1.553E3,1.965E3,5.143E3,4.381E3,6.451E3,8.489E3,1.818E3,1.268E3,2.37E2,4.13E2,1.683E3,6.53E3,2.748E3,5.152E3],"tree_param":{"num_deleted":"0","num_feature":"8","num_nodes":"63","size_leaf_vector":"1"}},{"base_weights":[5.0624744E-6,-1.9983606E0,1.4547753E0,-3.4515417E0,-1.302733E0,7.4870294E-1,2.6140125E0,-4.380309E0,-2.9153833E0,-1.9387699E0,-8.4202355E-1,1.7599919E0,4.2513222E-1,4.3991184E0,2.199866E0,-4.807313E0,-4.0016127E0,-3.3363328E0,-2.6306195E0,-2.029224E0,-1.195465E0,-1.1607857E0,-6.230422E-1,8.719032E-1,2.9424548E0,-1.8300508E-1,8.1632394E-1,3.9954062E0,6.3067374E0,1.1373388E0,3.304207E0,-5.054111E-2,-4.6560206E-2,-4.2061575E-2,-3.736912E-2,-3.5337325E-2,-3.1663515E-2,-2.6957367E-2,-2.0063989E-2,-1.0610403E-2,-2.1046858E-2,-5.603738E-3,-1.3026477E-2,-5.2682916E-3,-1.277549E-2,2.2892414E-3,-8.2747E-3,2.3217482E-2,5.304312E-3,2.2554995E-2,3.489655E-2,-4.637718E-3,6.069418E-4,1.8824182E-2,3.3737666E-3,4.5970596E-2,3.12984E-2,7.122243E-2,5.822686E-2,2.0258477E-2,9.08065E-3,4.7884088E-2,2.3565127E-2],"categories":[],"categories_nodes":[],"categories_segments":[],"categories_sizes":[],"default_left":[0,0,0,0,0,0,0,0,0,0,0,0,0,0,0,0,0,0,0,0,0,0,0,0,0,0,0,0,0,0,0,0,0,0,0,0,0,0,0,0,0,0,0,0,0,0,0,0,0,0,0,0,0,0,0,0,0,0,0,0,0,0,0],"id":9,"left_children":[1,3,5,7,9,11,13,15,17,19,21,23,25,27,29,31,33,35,37,39,41,43,45,47,49,51,53,55,57,59,61,-1,-1,-1,-1,-1,-1,-1,-1,-1,-1,-1,-1,-1,-1,-1,-1,-1,-1,-1,-1,-1,-1,-1,-1,-1,-1,-1,-1,-1,-1,-1,-1],"loss_changes":[2.6343838E5,3.8586594E4,4.2921266E4,6.1410938E3,7.5640664E3,1.0664119E4,1.4665344E4,7.118281E2,9.3077344E2,7.267383E2,1.0445762E3,8.293477E3,5.8745703E3,2.8527812E3,1.890429E4,5.5628906E1,1.1433203E2,9.480859E1,1.8482422E2,7.040508E2,7.952539E1,4.5064453E2,1.5466057E3,2.2330715E3,1.2656875E3,6.6147E2,7.6721953E3,1.5932305E3,2.1550781E2,1.6714473E3,1.1102016E4,0E0,0E0,0E0,0E0,0E0,0E0,0E0,0E0,0E0,0E0,0E0,0E0,0E0,0E0,0E0,0E0,0E0,0E0,0E0,0E0,0E0,0E0,0E0,0E0,0E0,0E0,0E0,0E0,0E0,0E0,0E0,0E0],"parents":[2147483647,0,0,1,1,2,2,3,3,4,4,5,5,6,6,7,7,8,8,9,9,10,10,11,11,12,12,13,13,14,14,15,15,16,16,17,17,18,18,19,19,20,20,21,21,22,22,23,23,24,24,25,25,26,26,27,27,28,28,29,29,30,30],"right_children":[2,4,6,8,10,12,14,16,18,20,22,24,26,28,30,32,34,36,38,40,42,44,46,48,50,52,54,56,58,60,62,-1,-1,-1,-1,-1,-1,-1,-1,-1,-1,-1,-1,-1,-1,-1,-1,-1,-1,-1,-1,-1,-1,-1,-1,-1,-1,-1,-1,-1,-1,-1,-1],"split_conditions":[1.95E-1,7.5E-2,3.2E-1,1.075E-1,1.25E-1,3.3E-1,4.495E-1,6.4E-2,5E-2,2E0,1.55E-1,2.4E-1,2.55E-1,3.925E-1,4.1E-1,1E-2,3E-2,4E-2,2E0,1E0,9.85E-2,1.71E-1,2.29E-1,2.505E-1,2.6E-1,2.35E-1,4.04E-1,4.04E-1,4.03E-1,5.06E-1,6.405E-1,-5.054111E-2,-4.6560206E-2,-4.2061575E-2,-3.736912E-2,-3.5337325E-2,-3.1663515E-2,-2.6957367E-2,-2.0063989E-2,-1.0610403E-2,-2.1046858E-2,-5.603738E-3,-1.3026477E-2,-5.2682916E-3,-1.277549E-2,2.2892414E-3,-8.2747E-3,2.3217482E-2,5.304312E-3,2.2554995E-2,3.489655E-2,-4.637718E-3,6.069418E-4,1.8824182E-2,3.3737666E-3,4.5970596E-2,3.12984E-2,7.122243E-2,5.822686E-2,2.0258477E-2,9.08065E-3,4.7884088E-2,2.3565127E-2],"split_indices":[7,7,7,4,7,5,5,4,7,0,7,7,7,7,7,7,7,7,0,0,5,5,5,5,7,7,5,5,5,5,5,0,0,0,0,0,0,0,0,0,0,0,0,0,0,0,0,0,0,0,0,0,0,0,0,0,0,0,0,0,0,0,0],"split_type":[0,0,0,0,0,0,0,0,0,0,0,0,0,0,0,0,0,0,0,0,0,0,0,0,0,0,0,0,0,0,0,0,0,0,0,0,0,0,0,0,0,0,0,0,0,0,0,0,0,0,0,0,0,0,0,0,0,0,0,0,0,0,0],"sum_hessian":[9.0615E4,3.8175E4,5.244E4,1.2357E4,2.5818E4,3.2591E4,1.9849E4,4.52E3,7.837E3,1.0844E4,1.4974E4,7.899E3,2.4692E4,3.736E3,1.6113E4,2.119E3,2.401E3,3.158E3,4.679E3,9.666E3,1.178E3,6.096E3,8.878E3,4.512E3,3.387E3,9.666E3,1.5026E4,3.086E3,6.5E2,8.213E3,7.9E3,7.93E2,1.326E3,1.346E3,1.055E3,1.452E3,1.706E3,4.234E3,4.45E2,7E2,8.966E3,1.71E2,1.007E3,9.49E2,5.147E3,1.718E3,7.16E3,8.59E2,3.653E3,1.504E3,1.883E3,4.491E3,5.175E3,4.657E3,1.0369E4,1.818E3,1.268E3,2.37E2,4.13E2,1.683E3,6.53E3,3.077E3,4.823E3],"tree_param":{"num_deleted":"0","num_feature":"8","num_nodes":"63","size_leaf_vector":"1"}},{"base_weights":[5.4655675E-6,-1.9783865E0,1.4402353E0,-3.5391428E0,-1.3435212E0,9.6465695E-1,3.128735E0,-4.514312E0,-3.0781384E0,-1.9711132E0,-8.3360475E-1,5.740217E-1,1.7236613E0,4.8906283E0,2.3123693E0,-4.848801E0,-4.232916E0,-3.4226525E0,-2.7081249E0,-2.0591018E0,-1.2521491E0,-1.0514075E0,-5.1689774E-1,1.5498023E0,1.6677648E-1,3.4474957E0,7.0148605E-1,3.6345243E0,5.539906E0,1.889349E0,4.286931E0,-5.017068E-2,-4.689164E-2,-4.4171877E-2,-4.096684E-2,-3.6131825E-2,-3.2024086E-2,-2.7627427E-2,-2.1303153E-2,-1.0683815E-2,-2.1323426E-2,-1.1369697E-2,-1.6073614E-2,-2.8727965E-3,-1.1389197E-2,6.7935577E-3,-7.1294364E-3,7.1059326E-3,2.5083842E-2,-2.660896E-3,4.7742804E-3,4.0384047E-2,2.5035715E-2,1.2133084E-2,4.0925825E-3,4.522987E-2,2.1478845E-2,5.2063536E-2,7.148599E-2,1.4741065E-2,2.472266E-2,6.103477E-2,3.189553E-2],"categories":[],"categories_nodes":[],"categories_segments":[],"categories_sizes":[],"default_left":[0,0,0,0,0,0,0,0,0,0,0,0,0,0,0,0,0,0,0,0,0,0,0,0,0,0,0,0,0,0,0,0,0,0,0,0,0,0,0,0,0,0,0,0,0,0,0,0,0,0,0,0,0,0,0,0,0,0,0,0,0,0,0],"id":10,"left_children":[1,3,5,7,9,11,13,15,17,19,21,23,25,27,29,31,33,35,37,39,41,43,45,47,49,51,53,55,57,59,61,-1,-1,-1,-1,-1,-1,-1,-1,-1,-1,-1,-1,-1,-1,-1,-1,-1,-1,-1,-1,-1,-1,-1,-1,-1,-1,-1,-1,-1,-1,-1,-1],"loss_changes":[2.5819855E5,3.7822703E4,4.2107844E4,4.948328E3,8.683371E3,1.2130945E4,1.6564234E4,3.1277344E2,9.4653906E2,7.669883E2,1.0324268E3,1.0735415E4,2.449552E4,2.9550234E3,6.5714023E3,1.975E1,3.0378906E1,1.5120312E2,1.0835742E2,7.840664E2,5.25459E1,5.9294824E2,1.4319988E3,6.397621E3,2.563404E3,2.8763594E3,1.3050884E3,1.6360332E3,1.2521953E3,1.5670293E3,2.749416E3,0E0,0E0,0E0,0E0,0E0,0E0,0E0,0E0,0E0,0E0,0E0,0E0,0E0,0E0,0E0,0E0,0E0,0E0,0E0,0E0,0E0,0E0,0E0,0E0,0E0,0E0,0E0,0E0,0E0,0E0,0E0,0E0],"parents":[2147483647,0,0,1,1,2,2,3,3,4,4,5,5,6,6,7,7,8,8,9,9,10,10,11,11,12,12,13,13,14,14,15,15,16,16,17,17,18,18,19,19,20,20,21,21,22,22,23,23,24,24,25,25,26,26,27,27,28,28,29,29,30,30],"right_children":[2,4,6,8,10,12,14,16,18,20,22,24,26,28,30,32,34,36,38,40,42,44,46,48,50,52,54,56,58,60,62,-1,-1,-1,-1,-1,-1,-1,-1,-1,-1,-1,-1,-1,-1,-1,-1,-1,-1,-1,-1,-1,-1,-1,-1,-1,-1,-1,-1,-1,-1,-1,-1],"split_conditions":[1.95E-1,7E-2,3.75E-1,3E-2,1.25E-1,2.95E-1,5.865E-1,2.2E-1,4.6E-2,2E0,1.7E-1,3.34E-1,4.495E-1,4.1E-1,5.12E-1,4.4E-2,2.75E-2,3.65E-2,2E0,1E0,1.69E-1,1.69E-1,2.29E-1,2.35E-1,2.5E-1,4.04E-1,6.15E-1,5.06E-1,5.12E-1,4.45E-1,7.305E-1,-5.017068E-2,-4.689164E-2,-4.4171877E-2,-4.096684E-2,-3.6131825E-2,-3.2024086E-2,-2.7627427E-2,-2.1303153E-2,-1.0683815E-2,-2.1323426E-2,-1.1369697E-2,-1.6073614E-2,-2.8727965E-3,-1.1389197E-2,6.7935577E-3,-7.1294364E-3,7.1059326E-3,2.5083842E-2,-2.660896E-3,4.7742804E-3,4.0384047E-2,2.5035715E-2,1.2133084E-2,4.0925825E-3,4.522987E-2,2.1478845E-2,5.2063536E-2,7.148599E-2,1.4741065E-2,2.472266E-2,6.103477E-2,3.189553E-2],"split_indices":[7,7,7,7,7,7,5,1,7,0,7,5,5,7,7,3,5,7,0,0,5,5,5,7,7,5,1,5,7,7,5,0,0,0,0,0,0,0,0,0,0,0,0,0,0,0,0,0,0,0,0,0,0,0,0,0,0,0,0,0,0,0,0],"split_type":[0,0,0,0,0,0,0,0,0,0,0,0,0,0,0,0,0,0,0,0,0,0,0,0,0,0,0,0,0,0,0,0,0,0,0,0,0,0,0,0,0,0,0,0,0,0,0,0,0,0,0,0,0,0,0,0,0,0,0,0,0,0,0],"sum_hessian":[9.0615E4,3.8175E4,5.244E4,1.1037E4,2.7138E4,4.0917E4,1.1523E4,3.54E3,7.497E3,1.2164E4,1.4974E4,2.7015E4,1.3902E4,3.647E3,7.876E3,1.61E3,1.93E3,3.878E3,3.619E3,1.0836E4,1.328E3,8.871E3,6.103E3,7.954E3,1.9061E4,5.174E3,8.728E3,1.245E3,2.402E3,6.488E3,1.388E3,7.69E2,8.41E2,8.07E2,1.123E3,2.071E3,1.807E3,3.303E3,3.16E2,7.47E2,1.0089E4,1.006E3,3.22E2,9.12E2,7.959E3,8.59E2,5.244E3,4.242E3,3.712E3,7.964E3,1.1097E4,3.18E3,1.994E3,3.171E3,5.557E3,7.78E2,4.67E2,1.993E3,4.09E2,3.791E3,2.697E3,5.21E2,8.67E2],"tree_param":{"num_deleted":"0","num_feature":"8","num_nodes":"63","size_leaf_vector":"1"}},{"base_weights":[6.1080264E-6,-1.9586126E0,1.4258413E0,-3.3833463E0,-1.2766024E0,7.3305374E-1,2.5632675E0,-4.293577E0,-2.8578887E0,-1.8996941E0,-8.252698E-1,1.7256321E0,4.1546977E-1,4.316935E0,2.156415E0,-4.712171E0,-3.9223397E0,-3.269701E0,-2.5793045E0,-1.9883845E0,-1.1708816E0,-2.9815346E-1,-9.547222E-1,8.541503E-1,2.8859837E0,-1.8016367E-1,7.986183E-1,3.920033E0,6.192386E0,1.1155355E0,3.2382565E0,-4.9545627E-2,-4.5635875E-2,-4.122092E-2,-3.6638282E-2,-3.4627784E-2,-3.1034378E-2,-2.6430245E-2,-1.968465E-2,-1.039776E-2,-2.0623207E-2,-5.4349904E-3,-1.2767734E-2,5.7463674E-3,-4.2917677E-3,-1.185482E-2,-4.810709E-3,2.5436155E-2,5.6665847E-3,3.566736E-2,2.338036E-2,5.749478E-4,-4.668096E-3,1.7503832E-2,2.768155E-3,4.510158E-2,3.0710515E-2,7.000914E-2,5.712623E-2,1.9909693E-2,8.896365E-3,4.6952303E-2,2.3079485E-2],"categories":[],"categories_nodes":[],"categories_segments":[],"categories_sizes":[],"default_left":[0,0,0,0,0,0,0,0,0,0,0,0,0,0,0,0,0,0,0,0,0,0,0,0,0,0,0,0,0,0,0,0,0,0,0,0,0,0,0,0,0,0,0,0,0,0,0,0,0,0,0,0,0,0,0,0,0,0,0,0,0,0,0],"id":11,"left_children":[1,3,5,7,9,11,13,15,17,19,21,23,25,27,29,31,33,35,37,39,41,43,45,47,49,51,53,55,57,59,61,-1,-1,-1,-1,-1,-1,-1,-1,-1,-1,-1,-1,-1,-1,-1,-1,-1,-1,-1,-1,-1,-1,-1,-1,-1,-1,-1,-1,-1,-1,-1,-1],"loss_changes":[2.5306316E5,3.709064E4,4.1321344E4,5.8984062E3,7.259289E3,1.027316E4,1.4153336E4,6.840625E2,8.9076953E2,6.986836E2,1.02155664E3,7.986213E3,5.6354824E3,2.7574375E3,1.8141828E4,5.3742188E1,1.0893359E2,9.066406E1,1.7695703E2,6.758633E2,7.763257E1,3.3805383E2,1.3134297E3,2.1905562E3,1.2554434E3,6.5857983E2,7.4624297E3,1.5327539E3,2.125293E2,1.622627E3,1.0698453E4,0E0,0E0,0E0,0E0,0E0,0E0,0E0,0E0,0E0,0E0,0E0,0E0,0E0,0E0,0E0,0E0,0E0,0E0,0E0,0E0,0E0,0E0,0E0,0E0,0E0,0E0,0E0,0E0,0E0,0E0,0E0,0E0],"parents":[2147483647,0,0,1,1,2,2,3,3,4,4,5,5,6,6,7,7,8,8,9,9,10,10,11,11,12,12,13,13,14,14,15,15,16,16,17,17,18,18,19,19,20,20,21,21,22,22,23,23,24,24,25,25,26,26,27,27,28,28,29,29,30,30],"right_children":[2,4,6,8,10,12,14,16,18,20,22,24,26,28,30,32,34,36,38,40,42,44,46,48,50,52,54,56,58,60,62,-1,-1,-1,-1,-1,-1,-1,-1,-1,-1,-1,-1,-1,-1,-1,-1,-1,-1,-1,-1,-1,-1,-1,-1,-1,-1,-1,-1,-1,-1,-1,-1],"split_conditions":[1.95E-1,7.5E-2,3.2E-1,1.075E-1,1.25E-1,3.3E-1,4.495E-1,6.4E-2,5E-2,2E0,1E0,2.4E-1,2.55E-1,3.925E-1,4.1E-1,1E-2,3E-2,4E-2,2E0,1E0,9.85E-2,1.8E-1,2E0,2.435E-1,2.985E-1,3.92E-1,4.155E-1,4.04E-1,4.03E-1,5.06E-1,6.405E-1,-4.9545627E-2,-4.5635875E-2,-4.122092E-2,-3.6638282E-2,-3.4627784E-2,-3.1034378E-2,-2.6430245E-2,-1.968465E-2,-1.039776E-2,-2.0623207E-2,-5.4349904E-3,-1.2767734E-2,5.7463674E-3,-4.2917677E-3,-1.185482E-2,-4.810709E-3,2.5436155E-2,5.6665847E-3,3.566736E-2,2.338036E-2,5.749478E-4,-4.668096E-3,1.7503832E-2,2.768155E-3,4.510158E-2,3.0710515E-2,7.000914E-2,5.712623E-2,1.9909693E-2,8.896365E-3,4.6952303E-2,2.3079485E-2],"split_indices":[7,7,7,4,7,5,5,4,7,0,0,7,7,7,7,7,7,7,0,0,5,5,0,5,5,5,5,5,5,5,5,0,0,0,0,0,0,0,0,0,0,0,0,0,0,0,0,0,0,0,0,0,0,0,0,0,0,0,0,0,0,0,0],"split_type":[0,0,0,0,0,0,0,0,0,0,0,0,0,0,0,0,0,0,0,0,0,0,0,0,0,0,0,0,0,0,0,0,0,0,0,0,0,0,0,0,0,0,0,0,0,0,0,0,0,0,0,0,0,0,0,0,0,0,0,0,0,0,0],"sum_hessian":[9.0615E4,3.8175E4,5.244E4,1.2357E4,2.5818E4,3.2591E4,1.9849E4,4.52E3,7.837E3,1.0844E4,1.4974E4,7.899E3,2.4692E4,3.736E3,1.6113E4,2.119E3,2.401E3,3.158E3,4.679E3,9.666E3,1.178E3,2.953E3,1.2021E4,4.512E3,3.387E3,9.666E3,1.5026E4,3.086E3,6.5E2,8.213E3,7.9E3,7.93E2,1.326E3,1.346E3,1.055E3,1.452E3,1.706E3,4.234E3,4.45E2,7E2,8.966E3,1.71E2,1.007E3,3.85E2,2.568E3,8.082E3,3.939E3,6.55E2,3.857E3,1.508E3,1.879E3,5.285E3,4.381E3,5.32E3,9.706E3,1.818E3,1.268E3,2.37E2,4.13E2,1.683E3,6.53E3,3.077E3,4.823E3],"tree_param":{"num_deleted":"0","num_feature":"8","num_nodes":"63","size_leaf_vector":"1"}},{"base_weights":[6.6147104E-6,-1.9390355E0,1.4115906E0,-3.349536E0,-1.2638389E0,9.449814E-1,3.0682464E0,-4.25068E0,-2.829324E0,-1.8807017E0,-8.1701815E-1,5.611392E-1,1.690787E0,4.7998333E0,2.2659237E0,-4.6650944E0,-3.883149E0,-3.2370248E0,-2.5535214E0,-1.9685038E0,-1.1591882E0,-1.1303055E0,-6.01799E-1,1.5624039E0,1.7917904E-1,3.3853476E0,6.859706E-1,3.5719006E0,5.434541E0,1.8479505E0,4.2169404E0,-4.9002282E-2,-4.5147885E-2,-4.0809017E-2,-3.6272246E-2,-3.4281746E-2,-3.0724214E-2,-2.6166009E-2,-1.9488242E-2,-1.0293929E-2,-2.0416996E-2,-9.997572E-3,-1.5786096E-2,-5.1130727E-3,-1.2443145E-2,2.3559937E-3,-8.027327E-3,7.344717E-3,2.5328526E-2,-2.4357797E-3,4.8999516E-3,3.965247E-2,2.4590092E-2,1.1922699E-2,3.968977E-3,4.4410314E-2,2.1175738E-2,5.1038682E-2,7.029486E-2,1.4405933E-2,2.4198E-2,6.008547E-2,3.1346407E-2],"categories":[],"categories_nodes":[],"categories_segments":[],"categories_sizes":[],"default_left":[0,0,0,0,0,0,0,0,0,0,0,0,0,0,0,0,0,0,0,0,0,0,0,0,0,0,0,0,0,0,0,0,0,0,0,0,0,0,0,0,0,0,0,0,0,0,0,0,0,0,0,0,0,0,0,0,0,0,0,0,0,0,0],"id":12,"left_children":[1,3,5,7,9,11,13,15,17,19,21,23,25,27,29,31,33,35,37,39,41,43,45,47,49,51,53,55,57,59,61,-1,-1,-1,-1,-1,-1,-1,-1,-1,-1,-1,-1,-1,-1,-1,-1,-1,-1,-1,-1,-1,-1,-1,-1,-1,-1,-1,-1,-1,-1,-1,-1],"loss_changes":[2.4802969E5,3.635325E4,4.0534555E4,5.7812344E3,7.114879E3,1.1712711E4,1.59993125E4,6.7047656E2,8.730781E2,6.847539E2,1.0090156E3,1.0331808E4,2.3670629E4,2.8237734E3,6.4156836E3,5.280078E1,1.0676172E2,8.886328E1,1.7341406E2,6.6240234E2,7.726001E1,4.296372E2,1.4941831E3,5.991994E3,2.569903E3,2.770168E3,1.277081E3,1.56554E3,1.2314766E3,1.5081074E3,2.6745117E3,0E0,0E0,0E0,0E0,0E0,0E0,0E0,0E0,0E0,0E0,0E0,0E0,0E0,0E0,0E0,0E0,0E0,0E0,0E0,0E0,0E0,0E0,0E0,0E0,0E0,0E0,0E0,0E0,0E0,0E0,0E0,0E0],"parents":[2147483647,0,0,1,1,2,2,3,3,4,4,5,5,6,6,7,7,8,8,9,9,10,10,11,11,12,12,13,13,14,14,15,15,16,16,17,17,18,18,19,19,20,20,21,21,22,22,23,23,24,24,25,25,26,26,27,27,28,28,29,29,30,30],"right_children":[2,4,6,8,10,12,14,16,18,20,22,24,26,28,30,32,34,36,38,40,42,44,46,48,50,52,54,56,58,60,62,-1,-1,-1,-1,-1,-1,-1,-1,-1,-1,-1,-1,-1,-1,-1,-1,-1,-1,-1,-1,-1,-1,-1,-1,-1,-1,-1,-1,-1,-1,-1,-1],"split_conditions":[1.95E-1,7.5E-2,3.75E-1,1.075E-1,1.25E-1,2.95E-1,5.865E-1,6.4E-2,5E-2,2E0,1.55E-1,3.3E-1,4.495E-1,4.1E-1,5.12E-1,4.4E-2,3E-2,4E-2,2E0,1E0,1.69E-1,1.71E-1,2.29E-1,2.35E-1,2.5E-1,4.04E-1,6.15E-1,5.06E-1,5.12E-1,4.45E-1,7.305E-1,-4.9002282E-2,-4.5147885E-2,-4.0809017E-2,-3.6272246E-2,-3.4281746E-2,-3.0724214E-2,-2.6166009E-2,-1.9488242E-2,-1.0293929E-2,-2.0416996E-2,-9.997572E-3,-1.5786096E-2,-5.1130727E-3,-1.2443145E-2,2.3559937E-3,-8.027327E-3,7.344717E-3,2.5328526E-2,-2.4357797E-3,4.8999516E-3,3.965247E-2,2.4590092E-2,1.1922699E-2,3.968977E-3,4.4410314E-2,2.1175738E-2,5.1038682E-2,7.029486E-2,1.4405933E-2,2.4198E-2,6.008547E-2,3.1346407E-2],"split_indices":[7,7,7,4,7,7,5,4,7,0,7,5,5,7,7,3,7,7,0,0,5,5,5,7,7,5,1,5,7,7,5,0,0,0,0,0,0,0,0,0,0,0,0,0,0,0,0,0,0,0,0,0,0,0,0,0,0,0,0,0,0,0,0],"split_type":[0,0,0,0,0,0,0,0,0,0,0,0,0,0,0,0,0,0,0,0,0,0,0,0,0,0,0,0,0,0,0,0,0,0,0,0,0,0,0,0,0,0,0,0,0,0,0,0,0,0,0,0,0,0,0,0,0,0,0,0,0,0,0],"sum_hessian":[9.0615E4,3.8175E4,5.244E4,1.2357E4,2.5818E4,4.0917E4,1.1523E4,4.52E3,7.837E3,1.0844E4,1.4974E4,2.7015E4,1.3902E4,3.647E3,7.876E3,2.119E3,2.401E3,3.158E3,4.679E3,9.666E3,1.178E3,6.096E3,8.878E3,7.459E3,1.9556E4,5.174E3,8.728E3,1.245E3,2.402E3,6.488E3,1.388E3,8.14E2,1.305E3,1.346E3,1.055E3,1.452E3,1.706E3,4.234E3,4.45E2,7E2,8.966E3,8.56E2,3.22E2,9.49E2,5.147E3,1.718E3,7.16E3,4.026E3,3.433E3,8.286E3,1.127E4,3.18E3,1.994E3,3.171E3,5.557E3,7.78E2,4.67E2,1.993E3,4.09E2,3.791E3,2.697E3,5.21E2,8.67E2],"tree_param":{"num_deleted":"0","num_feature":"8","num_nodes":"63","size_leaf_vector":"1"}},{"base_weights":[7.3174E-6,-1.9196546E0,1.3974829E0,-3.434557E0,-1.3034414E0,7.177313E-1,2.5135062E0,-4.3805914E0,-2.9873254E0,-1.9121721E0,-8.0884945E-1,1.6492994E0,3.9201924E-1,4.236273E0,2.1138232E0,-4.706181E0,-4.106689E0,-3.3210495E0,-2.6288993E0,-2.1561823E0,-1.6659133E0,-2.8768298E-1,-9.3684125E-1,9.5384187E-1,3.0253994E0,-1.9608077E-1,7.611755E-1,3.846053E0,6.0801644E0,1.0941712E0,3.1736014E0,-4.8697095E-2,-4.5510467E-2,-4.286254E-2,-3.9739527E-2,-3.506148E-2,-3.1070862E-2,-2.6818676E-2,-2.0685336E-2,-2.2378892E-2,-1.396911E-2,-1.74843E-2,-1.0648915E-2,5.734748E-3,-4.1696257E-3,-1.1649412E-2,-4.686511E-3,1.8881809E-2,4.8766527E-3,3.636019E-2,2.5243958E-2,-4.7438135E-3,4.0118763E-4,1.5508084E-2,1.7067483E-3,4.424867E-2,3.0133422E-2,6.881758E-2,5.604658E-2,1.9567164E-2,8.715987E-3,4.7381535E-2,2.3383353E-2],"categories":[],"categories_nodes":[],"categories_segments":[],"categories_sizes":[],"default_left":[0,0,0,0,0,0,0,0,0,0,0,0,0,0,0,0,0,0,0,0,0,0,0,0,0,0,0,0,0,0,0,0,0,0,0,0,0,0,0,0,0,0,0,0,0,0,0,0,0,0,0,0,0,0,0,0,0,0,0,0,0,0,0],"id":13,"left_children":[1,3,5,7,9,11,13,15,17,19,21,23,25,27,29,31,33,35,37,39,41,43,45,47,49,51,53,55,57,59,61,-1,-1,-1,-1,-1,-1,-1,-1,-1,-1,-1,-1,-1,-1,-1,-1,-1,-1,-1,-1,-1,-1,-1,-1,-1,-1,-1,-1,-1,-1,-1,-1],"loss_changes":[2.4309647E5,3.5632938E4,3.9780914E4,4.6570547E3,8.1692812E3,9.888514E3,1.3658984E4,2.9646094E2,8.881406E2,7.2739844E2,9.986377E2,8.0772285E3,5.243134E3,2.6654766E3,1.7409398E4,1.8707031E1,2.8992188E1,1.4273438E2,1.0190039E2,3.757422E2,2.986289E2,3.2910828E2,1.283333E3,2.4426104E3,8.5780273E2,6.122699E2,6.917912E3,1.4745508E3,2.0956445E2,1.575208E3,1.0314086E4,0E0,0E0,0E0,0E0,0E0,0E0,0E0,0E0,0E0,0E0,0E0,0E0,0E0,0E0,0E0,0E0,0E0,0E0,0E0,0E0,0E0,0E0,0E0,0E0,0E0,0E0,0E0,0E0,0E0,0E0,0E0,0E0],"parents":[2147483647,0,0,1,1,2,2,3,3,4,4,5,5,6,6,7,7,8,8,9,9,10,10,11,11,12,12,13,13,14,14,15,15,16,16,17,17,18,18,19,19,20,20,21,21,22,22,23,23,24,24,25,25,26,26,27,27,28,28,29,29,30,30],"right_children":[2,4,6,8,10,12,14,16,18,20,22,24,26,28,30,32,34,36,38,40,42,44,46,48,50,52,54,56,58,60,62,-1,-1,-1,-1,-1,-1,-1,-1,-1,-1,-1,-1,-1,-1,-1,-1,-1,-1,-1,-1,-1,-1,-1,-1,-1,-1,-1,-1,-1,-1,-1,-1],"split_conditions":[1.95E-1,7E-2,3.2E-1,3E-2,1.25E-1,3.34E-1,4.495E-1,2.2E-1,4.6E-2,9.5E-2,1E0,2.5E-1,2.55E-1,3.925E-1,4.1E-1,4.4E-2,2.75E-2,3.65E-2,2E0,2E0,2E0,1.8E-1,2E0,2.765E-1,3.015E-1,2.35E-1,4.315E-1,4.04E-1,4.03E-1,5.06E-1,6.31E-1,-4.8697095E-2,-4.5510467E-2,-4.286254E-2,-3.9739527E-2,-3.506148E-2,-3.1070862E-2,-2.6818676E-2,-2.0685336E-2,-2.2378892E-2,-1.396911E-2,-1.74843E-2,-1.0648915E-2,5.734748E-3,-4.1696257E-3,-1.1649412E-2,-4.686511E-3,1.8881809E-2,4.8766527E-3,3.636019E-2,2.5243958E-2,-4.7438135E-3,4.0118763E-4,1.5508084E-2,1.7067483E-3,4.424867E-2,3.0133422E-2,6.881758E-2,5.604658E-2,1.9567164E-2,8.715987E-3,4.7381535E-2,2.3383353E-2],"split_indices":[7,7,7,7,7,5,5,1,7,7,0,7,7,7,7,3,5,7,0,0,0,5,0,5,5,7,5,5,5,5,5,0,0,0,0,0,0,0,0,0,0,0,0,0,0,0,0,0,0,0,0,0,0,0,0,0,0,0,0,0,0,0,0],"split_type":[0,0,0,0,0,0,0,0,0,0,0,0,0,0,0,0,0,0,0,0,0,0,0,0,0,0,0,0,0,0,0,0,0,0,0,0,0,0,0,0,0,0,0,0,0,0,0,0,0,0,0,0,0,0,0,0,0,0,0,0,0,0,0],"sum_hessian":[9.0615E4,3.8175E4,5.244E4,1.1037E4,2.7138E4,3.2591E4,1.9849E4,3.54E3,7.497E3,1.2164E4,1.4974E4,8.442E3,2.4149E4,3.736E3,1.6113E4,1.61E3,1.93E3,3.878E3,3.619E3,6.106E3,6.058E3,2.953E3,1.2021E4,5.609E3,2.833E3,9.313E3,1.4836E4,3.086E3,6.5E2,8.213E3,7.9E3,7.69E2,8.41E2,8.07E2,1.123E3,2.071E3,1.807E3,3.303E3,3.16E2,5.511E3,5.95E2,5.325E3,7.33E2,3.85E2,2.568E3,8.082E3,3.939E3,1.866E3,3.743E3,1.274E3,1.559E3,4.275E3,5.038E3,6.347E3,8.489E3,1.818E3,1.268E3,2.37E2,4.13E2,1.683E3,6.53E3,2.748E3,5.152E3],"tree_param":{"num_deleted":"0","num_feature":"8","num_nodes":"63","size_leaf_vector":"1"}},{"base_weights":[7.5252456E-6,-1.9004678E0,1.3835156E0,-3.2831216E0,-1.2386011E0,9.2570364E-1,3.0089378E0,-4.166516E0,-2.7731562E0,-1.8430638E0,-8.007622E-1,5.485498E-1,1.658514E0,4.7100477E0,2.2207367E0,-4.5727625E0,-3.806229E0,-3.172374E0,-2.5030918E0,-1.929141E0,-1.1357253E0,-1.0146512E0,-4.89749E-1,1.4880322E0,1.5645395E-1,3.3236759E0,6.711305E-1,3.5103898E0,5.330133E0,1.8076966E0,4.148741E0,-4.8096508E-2,-4.427576E-2,-3.9993424E-2,-3.556296E-2,-3.359333E-2,-3.0113759E-2,-2.5648555E-2,-1.9109994E-2,-1.0001389E-2,-2.0015512E-2,-9.774807E-3,-1.5520717E-2,-3.6375974E-3,-1.1127021E-2,6.8351403E-3,-6.820305E-3,6.785274E-3,2.4126863E-2,-2.5687574E-3,4.5308527E-3,3.893598E-2,2.4132764E-2,1.1720881E-2,3.851087E-3,4.360565E-2,2.0877467E-2,5.0023563E-2,6.9112435E-2,1.4080314E-2,2.36875E-2,6.035333E-2,3.1458806E-2],"categories":[],"categories_nodes":[],"categories_segments":[],"categories_sizes":[],"default_left":[0,0,0,0,0,0,0,0,0,0,0,0,0,0,0,0,0,0,0,0,0,0,0,0,0,0,0,0,0,0,0,0,0,0,0,0,0,0,0,0,0,0,0,0,0,0,0,0,0,0,0,0,0,0,0,0,0,0,0,0,0,0,0],"id":14,"left_children":[1,3,5,7,9,11,13,15,17,19,21,23,25,27,29,31,33,35,37,39,41,43,45,47,49,51,53,55,57,59,61,-1,-1,-1,-1,-1,-1,-1,-1,-1,-1,-1,-1,-1,-1,-1,-1,-1,-1,-1,-1,-1,-1,-1,-1,-1,-1,-1,-1,-1,-1,-1,-1],"loss_changes":[2.3826134E5,3.493203E4,3.902053E4,5.55575E3,6.831707E3,1.1308102E4,1.5441109E4,6.443047E2,8.371094E2,6.581172E2,9.956748E2,9.951573E3,2.2856434E4,2.6950078E3,6.265297E3,5.1617188E1,1.0171094E2,8.49707E1,1.662461E2,6.4828906E2,7.616077E1,5.6581055E2,1.3775089E3,5.9527754E3,2.3372424E3,2.6756875E3,1.2502815E3,1.4979287E3,1.2107812E3,1.4517188E3,2.6089863E3,0E0,0E0,0E0,0E0,0E0,0E0,0E0,0E0,0E0,0E0,0E0,0E0,0E0,0E0,0E0,0E0,0E0,0E0,0E0,0E0,0E0,0E0,0E0,0E0,0E0,0E0,0E0,0E0,0E0,0E0,0E0,0E0],"parents":[2147483647,0,0,1,1,2,2,3,3,4,4,5,5,6,6,7,7,8,8,9,9,10,10,11,11,12,12,13,13,14,14,15,15,16,16,17,17,18,18,19,19,20,20,21,21,22,22,23,23,24,24,25,25,26,26,27,27,28,28,29,29,30,30],"right_children":[2,4,6,8,10,12,14,16,18,20,22,24,26,28,30,32,34,36,38,40,42,44,46,48,50,52,54,56,58,60,62,-1,-1,-1,-1,-1,-1,-1,-1,-1,-1,-1,-1,-1,-1,-1,-1,-1,-1,-1,-1,-1,-1,-1,-1,-1,-1,-1,-1,-1,-1,-1,-1],"split_conditions":[1.95E-1,7.5E-2,3.75E-1,1.075E-1,1.25E-1,2.95E-1,5.865E-1,6.4E-2,5E-2,2E0,1.7E-1,3.34E-1,4.495E-1,4.1E-1,5.12E-1,1E-2,3E-2,4E-2,2E0,1E0,1.69E-1,1.735E-1,2.29E-1,2.35E-1,2.5E-1,4.04E-1,6.15E-1,5.06E-1,5.12E-1,4.45E-1,7.245E-1,-4.8096508E-2,-4.427576E-2,-3.9993424E-2,-3.556296E-2,-3.359333E-2,-3.0113759E-2,-2.5648555E-2,-1.9109994E-2,-1.0001389E-2,-2.0015512E-2,-9.774807E-3,-1.5520717E-2,-3.6375974E-3,-1.1127021E-2,6.8351403E-3,-6.820305E-3,6.785274E-3,2.4126863E-2,-2.5687574E-3,4.5308527E-3,3.893598E-2,2.4132764E-2,1.1720881E-2,3.851087E-3,4.360565E-2,2.0877467E-2,5.0023563E-2,6.9112435E-2,1.4080314E-2,2.36875E-2,6.035333E-2,3.1458806E-2],"split_indices":[7,7,7,4,7,7,5,4,7,0,7,5,5,7,7,7,7,7,0,0,5,5,5,7,7,5,1,5,7,7,5,0,0,0,0,0,0,0,0,0,0,0,0,0,0,0,0,0,0,0,0,0,0,0,0,0,0,0,0,0,0,0,0],"split_type":[0,0,0,0,0,0,0,0,0,0,0,0,0,0,0,0,0,0,0,0,0,0,0,0,0,0,0,0,0,0,0,0,0,0,0,0,0,0,0,0,0,0,0,0,0,0,0,0,0,0,0,0,0,0,0,0,0,0,0,0,0,0,0],"sum_hessian":[9.0615E4,3.8175E4,5.244E4,1.2357E4,2.5818E4,4.0917E4,1.1523E4,4.52E3,7.837E3,1.0844E4,1.4974E4,2.7015E4,1.3902E4,3.647E3,7.876E3,2.119E3,2.401E3,3.158E3,4.679E3,9.666E3,1.178E3,8.871E3,6.103E3,7.954E3,1.9061E4,5.174E3,8.728E3,1.245E3,2.402E3,6.488E3,1.388E3,7.93E2,1.326E3,1.346E3,1.055E3,1.452E3,1.706E3,4.234E3,4.45E2,7E2,8.966E3,8.56E2,3.22E2,1.162E3,7.709E3,8.59E2,5.244E3,4.242E3,3.712E3,7.964E3,1.1097E4,3.18E3,1.994E3,3.171E3,5.557E3,7.78E2,4.67E2,1.993E3,4.09E2,3.791E3,2.697E3,4.8E2,9.08E2],"tree_param":{"num_deleted":"0","num_feature":"8","num_nodes":"63","size_leaf_vector":"1"}},{"base_weights":[8.422572E-6,-1.9719185E0,1.3069794E0,-3.366484E0,-1.3581488E0,4.8397356E-1,2.24795E0,-4.2936187E0,-2.928187E0,-1.9270307E0,-9.12443E-1,1.1195779E0,9.680784E-2,3.6483414E0,1.7957768E0,-4.6132045E0,-4.02477E0,-3.2549942E0,-2.577189E0,-2.007106E0,-1.2602494E0,-3.8113105E-1,-1.0292146E0,3.6759615E-1,2.231798E0,-3.288389E-1,3.918915E-1,3.2616847E0,5.327153E0,8.783426E-1,3.1102173E0,-4.77414E-2,-4.460552E-2,-4.2011883E-2,-3.894369E-2,-3.4365218E-2,-3.0451598E-2,-2.6290873E-2,-2.0281352E-2,-1.058476E-2,-2.0692809E-2,-1.1361073E-2,-1.6664637E-2,3.4748474E-3,-5.3678183E-3,-1.2302803E-2,-5.4111853E-3,1.8019687E-2,1.0961615E-3,3.084538E-2,1.6988767E-2,-5.3951326E-3,-7.973489E-4,1.005269E-2,-4.974421E-4,3.8382318E-2,2.326506E-2,4.6628207E-2,6.1415136E-2,5.3876434E-3,1.3520002E-2,4.5153435E-2,2.2130182E-2],"categories":[],"categories_nodes":[],"categories_segments":[],"categories_sizes":[],"default_left":[0,0,0,0,0,0,0,0,0,0,0,0,0,0,0,0,0,0,0,0,0,0,0,0,0,0,0,0,0,0,0,0,0,0,0,0,0,0,0,0,0,0,0,0,0,0,0,0,0,0,0,0,0,0,0,0,0,0,0,0,0,0,0],"id":15,"left_children":[1,3,5,7,9,11,13,15,17,19,21,23,25,27,29,31,33,35,37,39,41,43,45,47,49,51,53,55,57,59,61,-1,-1,-1,-1,-1,-1,-1,-1,-1,-1,-1,-1,-1,-1,-1,-1,-1,-1,-1,-1,-1,-1,-1,-1,-1,-1,-1,-1,-1,-1,-1,-1],"loss_changes":[2.3354278E5,3.0912047E4,4.220272E4,4.472828E3,6.3581406E3,7.1540527E3,1.6093695E4,2.8567188E2,8.516992E2,5.857539E2,8.7229395E2,9.203422E3,2.2694949E3,4.0104375E3,2.3177316E4,1.828125E1,2.80625E1,1.3728906E2,9.7822266E1,5.778867E2,5.7813965E1,2.8779333E2,1.1309785E3,2.4298516E3,2.0120332E3,3.8820276E2,2.890711E3,2.711746E3,5.989297E2,1.8203457E3,9.950625E3,0E0,0E0,0E0,0E0,0E0,0E0,0E0,0E0,0E0,0E0,0E0,0E0,0E0,0E0,0E0,0E0,0E0,0E0,0E0,0E0,0E0,0E0,0E0,0E0,0E0,0E0,0E0,0E0,0E0,0E0,0E0,0E0],"parents":[2147483647,0,0,1,1,2,2,3,3,4,4,5,5,6,6,7,7,8,8,9,9,10,10,11,11,12,12,13,13,14,14,15,15,16,16,17,17,18,18,19,19,20,20,21,21,22,22,23,23,24,24,25,25,26,26,27,27,28,28,29,29,30,30],"right_children":[2,4,6,8,10,12,14,16,18,20,22,24,26,28,30,32,34,36,38,40,42,44,46,48,50,52,54,56,58,60,62,-1,-1,-1,-1,-1,-1,-1,-1,-1,-1,-1,-1,-1,-1,-1,-1,-1,-1,-1,-1,-1,-1,-1,-1,-1,-1,-1,-1,-1,-1,-1,-1],"split_conditions":[1.85E-1,7E-2,2.95E-1,3E-2,1.2E-1,3.425E-1,4.495E-1,2.2E-1,4.6E-2,2E0,1E0,2.35E-1,2.5E-1,3.7E-1,4.1E-1,4.4E-2,2.75E-2,3.65E-2,2E0,1E0,1.645E-1,1.8E-1,2E0,2.435E-1,3.015E-1,2.35E-1,4.235E-1,4.04E-1,4.1E-1,3.55E-1,6.405E-1,-4.77414E-2,-4.460552E-2,-4.2011883E-2,-3.894369E-2,-3.4365218E-2,-3.0451598E-2,-2.6290873E-2,-2.0281352E-2,-1.058476E-2,-2.0692809E-2,-1.1361073E-2,-1.6664637E-2,3.4748474E-3,-5.3678183E-3,-1.2302803E-2,-5.4111853E-3,1.8019687E-2,1.0961615E-3,3.084538E-2,1.6988767E-2,-5.3951326E-3,-7.973489E-4,1.005269E-2,-4.974421E-4,3.8382318E-2,2.326506E-2,4.6628207E-2,6.1415136E-2,5.3876434E-3,1.3520002E-2,4.5153435E-2,2.2130182E-2],"split_indices":[7,7,7,7,7,5,5,1,7,0,0,7,7,7,7,3,5,7,0,0,5,5,0,5,5,7,5,5,7,7,5,0,0,0,0,0,0,0,0,0,0,0,0,0,0,0,0,0,0,0,0,0,0,0,0,0,0,0,0,0,0,0,0],"split_type":[0,0,0,0,0,0,0,0,0,0,0,0,0,0,0,0,0,0,0,0,0,0,0,0,0,0,0,0,0,0,0,0,0,0,0,0,0,0,0,0,0,0,0,0,0,0,0,0,0,0,0,0,0,0,0,0,0,0,0,0,0,0,0],"sum_hessian":[9.0615E4,3.6119E4,5.4496E4,1.1037E4,2.5082E4,2.9071E4,2.5425E4,3.54E3,7.497E3,1.1017E4,1.4065E4,1.1004E4,1.8067E4,6.204E3,1.9221E4,1.61E3,1.93E3,3.878E3,3.619E3,9.834E3,1.183E3,2.535E3,1.153E4,6.566E3,4.438E3,7.397E3,1.067E4,5.045E3,1.159E3,1.1321E4,7.9E3,7.69E2,8.41E2,8.07E2,1.123E3,2.071E3,1.807E3,3.303E3,3.16E2,6.06E2,9.228E3,9.09E2,2.74E2,4.46E2,2.089E3,8.165E3,3.365E3,1E3,5.566E3,1.705E3,2.733E3,4.007E3,3.39E3,4.466E3,6.204E3,3.119E3,1.926E3,6.42E2,5.17E2,6.595E3,4.726E3,3.077E3,4.823E3],"tree_param":{"num_deleted":"0","num_feature":"8","num_nodes":"63","size_leaf_vector":"1"}},{"base_weights":[7.954418E-6,-1.8630123E0,1.3562495E0,-3.2182083E0,-1.2142894E0,6.956233E-1,2.4408727E0,-4.084021E0,-2.7183926E0,-1.8063563E0,-7.8542924E-1,1.3738228E0,2.6651168E-1,4.1183553E0,2.051696E0,-4.497693E0,-3.7435865E0,-3.1090114E0,-2.4541438E0,-1.8907887E0,-1.1125369E0,-1.0914152E0,-5.752274E-1,7.3909205E-1,2.781362E0,-2.9478005E-1,5.919305E-1,3.7388244E0,5.9117393E0,1.3418295E0,3.4994314E0,-4.7152422E-2,-4.3548193E-2,-3.9320264E-2,-3.4913607E-2,-3.2918673E-2,-2.9515432E-2,-2.5145875E-2,-1.8746966E-2,-9.816156E-3,-1.9616527E-2,-4.9366024E-3,-1.2170351E-2,-4.3545566E-3,-1.1934067E-2,2.4628285E-3,-7.7235084E-3,1.938019E-2,3.9023608E-3,2.4102578E-2,3.77057E-2,-5.71203E-3,-1.3049771E-3,1.2323688E-2,8.698159E-4,4.9543254E-2,3.3534702E-2,6.707934E-2,5.4397438E-2,8.685534E-3,2.0365834E-2,4.738852E-2,2.233171E-2],"categories":[],"categories_nodes":[],"categories_segments":[],"categories_sizes":[],"default_left":[0,0,0,0,0,0,0,0,0,0,0,0,0,0,0,0,0,0,0,0,0,0,0,0,0,0,0,0,0,0,0,0,0,0,0,0,0,0,0,0,0,0,0,0,0,0,0,0,0,0,0,0,0,0,0,0,0,0,0,0,0,0,0],"id":16,"left_children":[1,3,5,7,9,11,13,15,17,19,21,23,25,27,29,31,33,35,37,39,41,43,45,47,49,51,53,55,57,59,61,-1,-1,-1,-1,-1,-1,-1,-1,-1,-1,-1,-1,-1,-1,-1,-1,-1,-1,-1,-1,-1,-1,-1,-1,-1,-1,-1,-1,-1,-1,-1,-1],"loss_changes":[2.2896247E5,3.355839E4,3.7573875E4,5.336797E3,6.554383E3,9.484665E3,1.2950359E4,6.1985156E2,8.0141016E2,6.3320703E2,9.625459E2,1.1281691E4,3.6465142E3,2.5214648E3,1.6555648E4,4.2746094E1,1.0442969E2,8.124414E1,1.5919922E2,6.2089453E2,7.564697E1,4.073838E2,1.4380464E3,3.6405522E3,1.4317773E3,3.326548E2,4.0865552E3,1.4293281E3,2.081582E2,3.5539863E3,8.308961E3,0E0,0E0,0E0,0E0,0E0,0E0,0E0,0E0,0E0,0E0,0E0,0E0,0E0,0E0,0E0,0E0,0E0,0E0,0E0,0E0,0E0,0E0,0E0,0E0,0E0,0E0,0E0,0E0,0E0,0E0,0E0,0E0],"parents":[2147483647,0,0,1,1,2,2,3,3,4,4,5,5,6,6,7,7,8,8,9,9,10,10,11,11,12,12,13,13,14,14,15,15,16,16,17,17,18,18,19,19,20,20,21,21,22,22,23,23,24,24,25,25,26,26,27,27,28,28,29,29,30,30],"right_children":[2,4,6,8,10,12,14,16,18,20,22,24,26,28,30,32,34,36,38,40,42,44,46,48,50,52,54,56,58,60,62,-1,-1,-1,-1,-1,-1,-1,-1,-1,-1,-1,-1,-1,-1,-1,-1,-1,-1,-1,-1,-1,-1,-1,-1,-1,-1,-1,-1,-1,-1,-1,-1],"split_conditions":[1.95E-1,7.5E-2,3.2E-1,1.075E-1,1.25E-1,3.62E-1,4.495E-1,2E-2,5E-2,2E0,1.55E-1,2.55E-1,2.6E-1,3.925E-1,4.45E-1,1E-2,3E-2,4E-2,2E0,1E0,9.85E-2,1.69E-1,2.29E-1,2.765E-1,2.9E-1,2.35E-1,4.465E-1,3.58E-1,4.03E-1,3.9E-1,6.94E-1,-4.7152422E-2,-4.3548193E-2,-3.9320264E-2,-3.4913607E-2,-3.2918673E-2,-2.9515432E-2,-2.5145875E-2,-1.8746966E-2,-9.816156E-3,-1.9616527E-2,-4.9366024E-3,-1.2170351E-2,-4.3545566E-3,-1.1934067E-2,2.4628285E-3,-7.7235084E-3,1.938019E-2,3.9023608E-3,2.4102578E-2,3.77057E-2,-5.71203E-3,-1.3049771E-3,1.2323688E-2,8.698159E-4,4.9543254E-2,3.3534702E-2,6.707934E-2,5.4397438E-2,8.685534E-3,2.0365834E-2,4.738852E-2,2.233171E-2],"split_indices":[7,7,7,4,7,5,5,7,7,0,7,7,7,7,7,7,7,7,0,0,5,5,5,5,7,7,5,5,5,7,5,0,0,0,0,0,0,0,0,0,0,0,0,0,0,0,0,0,0,0,0,0,0,0,0,0,0,0,0,0,0,0,0],"split_type":[0,0,0,0,0,0,0,0,0,0,0,0,0,0,0,0,0,0,0,0,0,0,0,0,0,0,0,0,0,0,0,0,0,0,0,0,0,0,0,0,0,0,0,0,0,0,0,0,0,0,0,0,0,0,0,0,0,0,0,0,0,0,0],"sum_hessian":[9.0615E4,3.8175E4,5.244E4,1.2357E4,2.5818E4,3.2591E4,1.9849E4,4.52E3,7.837E3,1.0844E4,1.4974E4,1.2629E4,1.9962E4,3.736E3,1.6113E4,2.035E3,2.485E3,3.158E3,4.679E3,9.666E3,1.178E3,6.096E3,8.878E3,8.705E3,3.924E3,7.326E3,1.2636E4,3.086E3,6.5E2,1.0813E4,5.3E3,7.94E2,1.241E3,1.414E3,1.071E3,1.452E3,1.706E3,4.234E3,4.45E2,7E2,8.966E3,1.71E2,1.007E3,8.21E2,5.275E3,1.718E3,7.16E3,1.961E3,6.744E3,2.856E3,1.068E3,2.73E3,4.596E3,5.57E3,7.066E3,7.4E2,2.346E3,2.37E2,4.13E2,6.433E3,4.38E3,2.677E3,2.623E3],"tree_param":{"num_deleted":"0","num_feature":"8","num_nodes":"63","size_leaf_vector":"1"}},{"base_weights":[8.532078E-6,-1.844391E0,1.3426945E0,-3.0324855E0,-1.1189767E0,6.886698E-1,2.4164796E0,-3.8989527E0,-2.4833772E0,-1.7044028E0,-7.775761E-1,1.3600913E0,2.6384684E-1,3.6770062E0,1.9065688E0,-4.3214345E0,-3.467935E0,-2.824833E0,-2.242212E0,-1.7829629E0,-1.0826662E0,-2.6786354E-1,-9.027561E-1,7.317037E-1,2.7535646E0,-1.2576592E-1,7.236351E-1,3.1190376E0,5.703166E0,1.1276715E0,3.3158224E0,-4.5724176E-2,-4.0900595E-2,-3.7602697E-2,-3.3518102E-2,-2.8717535E-2,-2.2606043E-2,-2.3201704E-2,-1.5147409E-2,-8.961266E-3,-1.857123E-2,-8.778761E-3,-1.5016329E-2,5.7182675E-3,-3.9392523E-3,-1.1255746E-2,-4.4540954E-3,1.9186482E-2,3.863342E-3,2.386164E-2,3.7329E-2,-3.8492223E-3,1.4639173E-3,1.571655E-2,1.7145843E-3,4.205352E-2,2.2799017E-2,5.5112258E-2,7.4868776E-2,6.2770443E-3,1.7644607E-2,4.518536E-2,2.2108486E-2],"categories":[],"categories_nodes":[],"categories_segments":[],"categories_sizes":[],"default_left":[0,0,0,0,0,0,0,0,0,0,0,0,0,0,0,0,0,0,0,0,0,0,0,0,0,0,0,0,0,0,0,0,0,0,0,0,0,0,0,0,0,0,0,0,0,0,0,0,0,0,0,0,0,0,0,0,0,0,0,0,0,0,0],"id":17,"left_children":[1,3,5,7,9,11,13,15,17,19,21,23,25,27,29,31,33,35,37,39,41,43,45,47,49,51,53,55,57,59,61,-1,-1,-1,-1,-1,-1,-1,-1,-1,-1,-1,-1,-1,-1,-1,-1,-1,-1,-1,-1,-1,-1,-1,-1,-1,-1,-1,-1,-1,-1,-1,-1],"loss_changes":[2.2440844E5,3.2898992E4,3.6826703E4,6.8758594E3,4.7364688E3,9.296026E3,1.2751695E4,1.0069375E3,7.2334766E2,4.2452344E2,9.5525E2,1.1057336E4,3.5762505E3,6.4443438E3,1.5511742E4,1.4564062E2,8.187109E1,9.0509766E1,2.9127344E2,5.0803906E2,8.29375E1,3.1291443E2,1.2246055E3,3.568147E3,1.4033418E3,7.62289E2,4.287558E3,4.077871E3,3.80875E2,2.8976836E3,6.676043E3,0E0,0E0,0E0,0E0,0E0,0E0,0E0,0E0,0E0,0E0,0E0,0E0,0E0,0E0,0E0,0E0,0E0,0E0,0E0,0E0,0E0,0E0,0E0,0E0,0E0,0E0,0E0,0E0,0E0,0E0,0E0,0E0],"parents":[2147483647,0,0,1,1,2,2,3,3,4,4,5,5,6,6,7,7,8,8,9,9,10,10,11,11,12,12,13,13,14,14,15,15,16,16,17,17,18,18,19,19,20,20,21,21,22,22,23,23,24,24,25,25,26,26,27,27,28,28,29,29,30,30],"right_children":[2,4,6,8,10,12,14,16,18,20,22,24,26,28,30,32,34,36,38,40,42,44,46,48,50,52,54,56,58,60,62,-1,-1,-1,-1,-1,-1,-1,-1,-1,-1,-1,-1,-1,-1,-1,-1,-1,-1,-1,-1,-1,-1,-1,-1,-1,-1,-1,-1,-1,-1,-1,-1],"split_conditions":[1.95E-1,8.35E-2,3.2E-1,3.65E-2,1.25E-1,3.62E-1,4.975E-1,7.95E-2,6E-2,2E0,1E0,2.55E-1,2.75E-1,3.925E-1,4.45E-1,1.25E-2,3E-2,2E0,2E0,1E0,1.69E-1,1.8E-1,2E0,2.765E-1,2.9E-1,2.5E-1,4.465E-1,4.125E-1,5E-1,3.9E-1,6.94E-1,-4.5724176E-2,-4.0900595E-2,-3.7602697E-2,-3.3518102E-2,-2.8717535E-2,-2.2606043E-2,-2.3201704E-2,-1.5147409E-2,-8.961266E-3,-1.857123E-2,-8.778761E-3,-1.5016329E-2,5.7182675E-3,-3.9392523E-3,-1.1255746E-2,-4.4540954E-3,1.9186482E-2,3.863342E-3,2.386164E-2,3.7329E-2,-3.8492223E-3,1.4639173E-3,1.571655E-2,1.7145843E-3,4.205352E-2,2.2799017E-2,5.5112258E-2,7.4868776E-2,6.2770443E-3,1.7644607E-2,4.518536E-2,2.2108486E-2],"split_indices":[7,7,7,7,7,5,5,4,7,0,0,7,7,7,7,7,7,0,0,0,5,5,0,5,7,7,5,5,7,7,5,0,0,0,0,0,0,0,0,0,0,0,0,0,0,0,0,0,0,0,0,0,0,0,0,0,0,0,0,0,0,0,0],"split_type":[0,0,0,0,0,0,0,0,0,0,0,0,0,0,0,0,0,0,0,0,0,0,0,0,0,0,0,0,0,0,0,0,0,0,0,0,0,0,0,0,0,0,0,0,0,0,0,0,0,0,0,0,0,0,0,0,0,0,0,0,0,0,0],"sum_hessian":[9.0615E4,3.8175E4,5.244E4,1.4471E4,2.3704E4,3.2591E4,1.9849E4,5.611E3,8.86E3,8.73E3,1.4974E4,1.2629E4,1.9962E4,5.715E3,1.4134E4,2.829E3,2.782E3,3.663E3,5.197E3,7.749E3,9.81E2,2.953E3,1.2021E4,8.705E3,3.924E3,1.0806E4,9.156E3,4.483E3,1.232E3,9.104E3,5.03E3,1.348E3,1.481E3,7.82E2,2E3,3.378E3,2.85E2,4.692E3,5.05E2,5.99E2,7.15E3,6.61E2,3.2E2,3.85E2,2.568E3,8.082E3,3.939E3,1.961E3,6.744E3,2.856E3,1.068E3,5.535E3,5.271E3,3.61E3,5.546E3,1.952E3,2.531E3,1.116E3,1.16E2,5.101E3,4.003E3,2.407E3,2.623E3],"tree_param":{"num_deleted":"0","num_feature":"8","num_nodes":"63","size_leaf_vector":"1"}},{"base_weights":[9.258658E-6,-1.9138045E0,1.2684636E0,-3.266987E0,-1.318248E0,4.6858558E-1,2.1829915E0,-4.1663523E0,-2.841818E0,-1.8701313E0,-8.8586026E-1,1.0898371E0,9.016286E-2,3.546305E0,1.7427905E0,-4.4545913E0,-3.8841355E0,-3.1590655E0,-2.5010874E0,-1.9477482E0,-1.2238196E0,-3.6699992E-1,-9.998958E-1,3.54597E-1,2.1772964E0,-3.211357E-1,3.752998E-1,3.17036E0,5.178607E0,8.52113E-1,3.0188956E0,-4.6204157E-2,-4.3122567E-2,-4.0085386E-2,-3.722658E-2,-3.3345655E-2,-2.9561916E-2,-2.551314E-2,-1.9696988E-2,-1.0245027E-2,-2.00826E-2,-1.0964636E-2,-1.6073614E-2,3.4660117E-3,-5.194462E-3,-1.1962538E-2,-5.2322927E-3,1.764231E-2,1.0106757E-3,3.0155957E-2,1.653406E-2,-5.2844225E-3,-7.6014525E-4,9.734266E-3,-5.535414E-4,3.7320577E-2,2.2592723E-2,4.536729E-2,5.9653815E-2,5.2190064E-3,1.3127072E-2,4.5226377E-2,2.2161E-2],"categories":[],"categories_nodes":[],"categories_segments":[],"categories_sizes":[],"default_left":[0,0,0,0,0,0,0,0,0,0,0,0,0,0,0,0,0,0,0,0,0,0,0,0,0,0,0,0,0,0,0,0,0,0,0,0,0,0,0,0,0,0,0,0,0,0,0,0,0,0,0,0,0,0,0,0,0,0,0,0,0,0,0],"id":18,"left_children":[1,3,5,7,9,11,13,15,17,19,21,23,25,27,29,31,33,35,37,39,41,43,45,47,49,51,53,55,57,59,61,-1,-1,-1,-1,-1,-1,-1,-1,-1,-1,-1,-1,-1,-1,-1,-1,-1,-1,-1,-1,-1,-1,-1,-1,-1,-1,-1,-1,-1,-1,-1,-1],"loss_changes":[2.199805E5,2.9104688E4,3.9864117E4,4.2088984E3,5.983836E3,6.8346025E3,1.5252766E4,2.7075E2,8.0260156E2,5.5033203E2,8.3189844E2,8.798206E3,2.119071E3,3.7913203E3,2.1845125E4,2.1261719E1,2.1173828E1,1.2825E2,9.15918E1,5.473906E2,5.6071777E1,2.7606094E2,1.0786445E3,2.3467607E3,1.9445195E3,3.7589087E2,2.748751E3,2.5738867E3,5.5875195E2,1.7213213E3,9.528047E3,0E0,0E0,0E0,0E0,0E0,0E0,0E0,0E0,0E0,0E0,0E0,0E0,0E0,0E0,0E0,0E0,0E0,0E0,0E0,0E0,0E0,0E0,0E0,0E0,0E0,0E0,0E0,0E0,0E0,0E0,0E0,0E0],"parents":[2147483647,0,0,1,1,2,2,3,3,4,4,5,5,6,6,7,7,8,8,9,9,10,10,11,11,12,12,13,13,14,14,15,15,16,16,17,17,18,18,19,19,20,20,21,21,22,22,23,23,24,24,25,25,26,26,27,27,28,28,29,29,30,30],"right_children":[2,4,6,8,10,12,14,16,18,20,22,24,26,28,30,32,34,36,38,40,42,44,46,48,50,52,54,56,58,60,62,-1,-1,-1,-1,-1,-1,-1,-1,-1,-1,-1,-1,-1,-1,-1,-1,-1,-1,-1,-1,-1,-1,-1,-1,-1,-1,-1,-1,-1,-1,-1,-1],"split_conditions":[1.85E-1,7E-2,2.95E-1,3E-2,1.2E-1,3.425E-1,4.495E-1,5.45E-2,4.6E-2,2E0,1E0,2.35E-1,2.5E-1,3.7E-1,4.1E-1,1E-2,2.25E-2,3.65E-2,2E0,1E0,1.625E-1,1.8E-1,2E0,2.435E-1,3.015E-1,2.35E-1,4.235E-1,4.04E-1,4.1E-1,3.55E-1,6.31E-1,-4.6204157E-2,-4.3122567E-2,-4.0085386E-2,-3.722658E-2,-3.3345655E-2,-2.9561916E-2,-2.551314E-2,-1.9696988E-2,-1.0245027E-2,-2.00826E-2,-1.0964636E-2,-1.6073614E-2,3.4660117E-3,-5.194462E-3,-1.1962538E-2,-5.2322927E-3,1.764231E-2,1.0106757E-3,3.0155957E-2,1.653406E-2,-5.2844225E-3,-7.6014525E-4,9.734266E-3,-5.535414E-4,3.7320577E-2,2.2592723E-2,4.536729E-2,5.9653815E-2,5.2190064E-3,1.3127072E-2,4.5226377E-2,2.2161E-2],"split_indices":[7,7,7,7,7,5,5,4,7,0,0,7,7,7,7,7,7,7,0,0,5,5,0,5,5,7,5,5,7,7,5,0,0,0,0,0,0,0,0,0,0,0,0,0,0,0,0,0,0,0,0,0,0,0,0,0,0,0,0,0,0,0,0],"split_type":[0,0,0,0,0,0,0,0,0,0,0,0,0,0,0,0,0,0,0,0,0,0,0,0,0,0,0,0,0,0,0,0,0,0,0,0,0,0,0,0,0,0,0,0,0,0,0,0,0,0,0,0,0,0,0,0,0,0,0,0,0,0,0],"sum_hessian":[9.0615E4,3.6119E4,5.4496E4,1.1037E4,2.5082E4,2.9071E4,2.5425E4,3.54E3,7.497E3,1.1017E4,1.4065E4,1.1004E4,1.8067E4,6.204E3,1.9221E4,1.744E3,1.796E3,3.878E3,3.619E3,9.834E3,1.183E3,2.535E3,1.153E4,6.566E3,4.438E3,7.397E3,1.067E4,5.045E3,1.159E3,1.1321E4,7.9E3,7.91E2,9.53E2,1.001E3,7.95E2,2.071E3,1.807E3,3.303E3,3.16E2,6.06E2,9.228E3,8.91E2,2.92E2,4.46E2,2.089E3,8.165E3,3.365E3,1E3,5.566E3,1.705E3,2.733E3,4.007E3,3.39E3,4.466E3,6.204E3,3.119E3,1.926E3,6.42E2,5.17E2,6.595E3,4.726E3,2.748E3,5.152E3],"tree_param":{"num_deleted":"0","num_feature":"8","num_nodes":"63","size_leaf_vector":"1"}},{"base_weights":[8.772276E-6,-1.8080388E0,1.3162313E0,-2.9654365E0,-1.0922793E0,6.748964E-1,2.3691819E0,-3.8214273E0,-2.429921E0,-1.6649994E0,-7.626868E-1,1.3348356E0,2.5733858E-1,3.6096141E0,1.8674005E0,-4.2358856E0,-3.3985968E0,-2.7693462E0,-2.1953862E0,-1.742872E0,-1.0486573E0,-9.6935546E-1,-4.6217448E-1,7.178126E-1,2.7031078E0,-2.8803858E-1,5.735308E-1,3.0622535E0,5.5972505E0,1.1012087E0,3.2536676E0,-4.481965E-2,-4.0090315E-2,-3.6846086E-2,-3.2849804E-2,-2.8155254E-2,-2.2140685E-2,-2.1994764E-2,9.766401E-2,-8.62038E-3,-1.816652E-2,-8.369896E-3,-1.4733418E-2,-2.4256324E-3,-1.0525956E-2,6.819043E-3,-6.49676E-3,1.8870136E-2,3.7760653E-3,2.3433883E-2,3.661962E-2,-4.049323E-3,9.0950314E-4,1.2115722E-2,9.3726226E-4,4.1257083E-2,2.2407727E-2,5.4072738E-2,7.363122E-2,6.1225463E-3,1.7239714E-2,4.4368982E-2,2.1665966E-2],"categories":[],"categories_nodes":[],"categories_segments":[],"categories_sizes":[],"default_left":[0,0,0,0,0,0,0,0,0,0,0,0,0,0,0,0,0,0,0,0,0,0,0,0,0,0,0,0,0,0,0,0,0,0,0,0,0,0,0,0,0,0,0,0,0,0,0,0,0,0,0,0,0,0,0,0,0,0,0,0,0,0,0],"id":19,"left_children":[1,3,5,7,9,11,13,15,17,19,21,23,25,27,29,31,33,35,37,39,41,43,45,47,49,51,53,55,57,59,61,-1,-1,-1,-1,-1,-1,-1,-1,-1,-1,-1,-1,-1,-1,-1,-1,-1,-1,-1,-1,-1,-1,-1,-1,-1,-1,-1,-1,-1,-1,-1,-1],"loss_changes":[2.156497E5,3.1622453E4,3.5411484E4,6.6773438E3,4.4516797E3,8.9808E3,1.2348422E4,9.6908594E2,7.0847656E2,4.1170898E2,9.295967E2,1.0661004E4,3.442665E3,6.2016094E3,1.5009855E4,1.4001172E2,7.833008E1,8.771875E1,2.814375E2,4.9546094E2,8.587219E1,5.3648535E2,1.3098518E3,3.4622666E3,1.3452227E3,3.246333E2,3.868517E3,3.9080117E3,3.7382422E2,2.7714385E3,6.461539E3,0E0,0E0,0E0,0E0,0E0,0E0,0E0,0E0,0E0,0E0,0E0,0E0,0E0,0E0,0E0,0E0,0E0,0E0,0E0,0E0,0E0,0E0,0E0,0E0,0E0,0E0,0E0,0E0,0E0,0E0,0E0,0E0],"parents":[2147483647,0,0,1,1,2,2,3,3,4,4,5,5,6,6,7,7,8,8,9,9,10,10,11,11,12,12,13,13,14,14,15,15,16,16,17,17,18,18,19,19,20,20,21,21,22,22,23,23,24,24,25,25,26,26,27,27,28,28,29,29,30,30],"right_children":[2,4,6,8,10,12,14,16,18,20,22,24,26,28,30,32,34,36,38,40,42,44,46,48,50,52,54,56,58,60,62,-1,-1,-1,-1,-1,-1,-1,-1,-1,-1,-1,-1,-1,-1,-1,-1,-1,-1,-1,-1,-1,-1,-1,-1,-1,-1,-1,-1,-1,-1,-1,-1],"split_conditions":[1.95E-1,8.5E-2,3.2E-1,3.65E-2,1.25E-1,3.62E-1,4.975E-1,7.95E-2,6E-2,2E0,1.7E-1,2.55E-1,2.6E-1,3.925E-1,4.45E-1,1.25E-2,3E-2,2E0,1.45E-1,1E0,1.69E-1,1.69E-1,2.29E-1,2.765E-1,2.9E-1,1.55E-1,4.445E-1,4.125E-1,5E-1,3.9E-1,6.94E-1,-4.481965E-2,-4.0090315E-2,-3.6846086E-2,-3.2849804E-2,-2.8155254E-2,-2.2140685E-2,-2.1994764E-2,9.766401E-2,-8.62038E-3,-1.816652E-2,-8.369896E-3,-1.4733418E-2,-2.4256324E-3,-1.0525956E-2,6.819043E-3,-6.49676E-3,1.8870136E-2,3.7760653E-3,2.3433883E-2,3.661962E-2,-4.049323E-3,9.0950314E-4,1.2115722E-2,9.3726226E-4,4.1257083E-2,2.2407727E-2,5.4072738E-2,7.363122E-2,6.1225463E-3,1.7239714E-2,4.4368982E-2,2.1665966E-2],"split_indices":[7,7,7,7,7,5,5,4,7,0,7,7,7,7,7,7,7,0,3,0,5,5,5,5,7,3,5,5,7,7,5,0,0,0,0,0,0,0,0,0,0,0,0,0,0,0,0,0,0,0,0,0,0,0,0,0,0,0,0,0,0,0,0],"split_type":[0,0,0,0,0,0,0,0,0,0,0,0,0,0,0,0,0,0,0,0,0,0,0,0,0,0,0,0,0,0,0,0,0,0,0,0,0,0,0,0,0,0,0,0,0,0,0,0,0,0,0,0,0,0,0,0,0,0,0,0,0,0,0],"sum_hessian":[9.0615E4,3.8175E4,5.244E4,1.4586E4,2.3589E4,3.2591E4,1.9849E4,5.611E3,8.975E3,8.615E3,1.4974E4,1.2629E4,1.9962E4,5.715E3,1.4134E4,2.829E3,2.782E3,3.663E3,5.312E3,7.647E3,9.68E2,8.871E3,6.103E3,8.705E3,3.924E3,7.326E3,1.2636E4,4.483E3,1.232E3,9.104E3,5.03E3,1.348E3,1.481E3,7.82E2,2E3,3.378E3,2.85E2,5.311E3,1E0,5.92E2,7.055E3,6.48E2,3.2E2,9.12E2,7.959E3,8.59E2,5.244E3,1.961E3,6.744E3,2.856E3,1.068E3,5.599E3,1.727E3,5.423E3,7.213E3,1.952E3,2.531E3,1.116E3,1.16E2,5.101E3,4.003E3,2.407E3,2.623E3],"tree_param":{"num_deleted":"0","num_feature":"8","num_nodes":"63","size_leaf_vector":"1"}},{"base_weights":[1.0720933E-5,-1.7899636E0,1.3030763E0,-2.9357908E0,-1.0813594E0,6.681504E-1,2.3455045E0,-3.7832406E0,-2.4056191E0,-1.6483551E0,-7.5506103E-1,1.5876694E0,3.739428E-1,3.5735517E0,1.848733E0,-4.2076025E0,-3.3780727E0,-2.7416663E0,-2.1734183E0,-1.7254468E0,-1.0381949E0,-1.0539205E0,-5.497562E-1,7.777458E-1,2.666063E0,-1.7032292E-1,7.240488E-1,3.0316453E0,5.541382E0,1.0901992E0,3.2211442E0,-4.4275682E-2,-3.9722573E-2,-3.656788E-2,-3.2539655E-2,-2.7873784E-2,-2.1920053E-2,-2.1774862E-2,9.7175695E-2,-8.534323E-3,-1.798488E-2,-4.8178164E-3,-1.1971637E-2,-4.676955E-3,-1.1618964E-2,3.4467296E-3,-7.240905E-3,2.3869362E-2,5.039234E-3,3.3181876E-2,2.1412108E-2,3.4734182E-4,-4.7775847E-3,1.7034492E-2,2.840516E-3,4.0844727E-2,2.218374E-2,5.3532496E-2,7.2901204E-2,6.0613323E-3,1.7067362E-2,4.392548E-2,2.1449395E-2],"categories":[],"categories_nodes":[],"categories_segments":[],"categories_sizes":[],"default_left":[0,0,0,0,0,0,0,0,0,0,0,0,0,0,0,0,0,0,0,0,0,0,0,0,0,0,0,0,0,0,0,0,0,0,0,0,0,0,0,0,0,0,0,0,0,0,0,0,0,0,0,0,0,0,0,0,0,0,0,0,0,0,0],"id":20,"left_children":[1,3,5,7,9,11,13,15,17,19,21,23,25,27,29,31,33,35,37,39,41,43,45,47,49,51,53,55,57,59,61,-1,-1,-1,-1,-1,-1,-1,-1,-1,-1,-1,-1,-1,-1,-1,-1,-1,-1,-1,-1,-1,-1,-1,-1,-1,-1,-1,-1,-1,-1,-1,-1],"loss_changes":[2.1135997E5,3.0993367E4,3.4707273E4,6.544758E3,4.3631367E3,8.816505E3,1.21030625E4,9.507031E2,6.944375E2,4.0349023E2,9.182461E2,6.897916E3,4.705391E3,6.078625E3,1.4711309E4,1.2410156E2,8.7578125E1,8.595117E1,2.7815625E2,4.8558984E2,8.5133545E1,3.8538623E2,1.384749E3,1.9873706E3,1.1525039E3,6.0944214E2,6.4751533E3,3.830293E3,3.66625E2,2.7163027E3,6.3330156E3,0E0,0E0,0E0,0E0,0E0,0E0,0E0,0E0,0E0,0E0,0E0,0E0,0E0,0E0,0E0,0E0,0E0,0E0,0E0,0E0,0E0,0E0,0E0,0E0,0E0,0E0,0E0,0E0,0E0,0E0,0E0,0E0],"parents":[2147483647,0,0,1,1,2,2,3,3,4,4,5,5,6,6,7,7,8,8,9,9,10,10,11,11,12,12,13,13,14,14,15,15,16,16,17,17,18,18,19,19,20,20,21,21,22,22,23,23,24,24,25,25,26,26,27,27,28,28,29,29,30,30],"right_children":[2,4,6,8,10,12,14,16,18,20,22,24,26,28,30,32,34,36,38,40,42,44,46,48,50,52,54,56,58,60,62,-1,-1,-1,-1,-1,-1,-1,-1,-1,-1,-1,-1,-1,-1,-1,-1,-1,-1,-1,-1,-1,-1,-1,-1,-1,-1,-1,-1,-1,-1,-1,-1],"split_conditions":[1.95E-1,8.5E-2,3.2E-1,3.65E-2,1.25E-1,3.3E-1,4.975E-1,2.25E-2,6E-2,2E0,1.55E-1,2.4E-1,2.55E-1,3.925E-1,4.45E-1,1.8E-2,9.4E-2,2E0,1.45E-1,1E0,1.285E-1,1.71E-1,2.185E-1,2.435E-1,2.985E-1,4.01E-1,4.04E-1,4.125E-1,5E-1,3.9E-1,6.94E-1,-4.4275682E-2,-3.9722573E-2,-3.656788E-2,-3.2539655E-2,-2.7873784E-2,-2.1920053E-2,-2.1774862E-2,9.7175695E-2,-8.534323E-3,-1.798488E-2,-4.8178164E-3,-1.1971637E-2,-4.676955E-3,-1.1618964E-2,3.4467296E-3,-7.240905E-3,2.3869362E-2,5.039234E-3,3.3181876E-2,2.1412108E-2,3.4734182E-4,-4.7775847E-3,1.7034492E-2,2.840516E-3,4.0844727E-2,2.218374E-2,5.3532496E-2,7.2901204E-2,6.0613323E-3,1.7067362E-2,4.392548E-2,2.1449395E-2],"split_indices":[7,7,7,7,7,5,5,7,7,0,7,7,7,7,7,5,4,0,3,0,5,5,5,5,5,5,5,5,7,7,5,0,0,0,0,0,0,0,0,0,0,0,0,0,0,0,0,0,0,0,0,0,0,0,0,0,0,0,0,0,0,0,0],"split_type":[0,0,0,0,0,0,0,0,0,0,0,0,0,0,0,0,0,0,0,0,0,0,0,0,0,0,0,0,0,0,0,0,0,0,0,0,0,0,0,0,0,0,0,0,0,0,0,0,0,0,0,0,0,0,0,0,0,0,0,0,0,0,0],"sum_hessian":[9.0615E4,3.8175E4,5.244E4,1.4586E4,2.3589E4,3.2591E4,1.9849E4,5.611E3,8.975E3,8.615E3,1.4974E4,7.899E3,2.4692E4,5.715E3,1.4134E4,2.736E3,2.875E3,3.663E3,5.312E3,7.647E3,9.68E2,6.096E3,8.878E3,4.512E3,3.387E3,9.666E3,1.5026E4,4.483E3,1.232E3,9.104E3,5.03E3,1.405E3,1.331E3,8.77E2,1.998E3,3.378E3,2.85E2,5.311E3,1E0,5.92E2,7.055E3,2.16E2,7.52E2,9.49E2,5.147E3,1.448E3,7.43E3,6.55E2,3.857E3,1.508E3,1.879E3,5.799E3,3.867E3,4.657E3,1.0369E4,1.952E3,2.531E3,1.116E3,1.16E2,5.101E3,4.003E3,2.407E3,2.623E3],"tree_param":{"num_deleted":"0","num_feature":"8","num_nodes":"63","size_leaf_vector":"1"}},{"base_weights":[1.2828223E-5,-1.8572968E0,1.2310169E0,-3.1704307E0,-1.2793664E0,4.5292062E-1,2.120641E0,-4.043086E0,-2.757888E0,-1.8200157E0,-8.638026E-1,1.0594314E0,8.347712E-2,3.4519262E0,1.6907821E0,-4.3458595E0,-3.7883937E0,-3.0663745E0,-2.4265685E0,-1.8969235E0,-1.1775812E0,-3.4522834E-1,-9.77491E-1,3.4282756E-1,2.1193275E0,-3.1406793E-1,3.5907966E-1,3.087048E0,5.03617E0,8.2580495E-1,2.9300659E0,-4.5017466E-2,-4.1981414E-2,-3.9571177E-2,-3.663734E-2,-3.210471E-2,-2.8376855E-2,-2.4757521E-2,-1.9062871E-2,-1.0234774E-2,-1.9531751E-2,-1.05889095E-2,-1.5819758E-2,3.6651036E-3,-4.9859616E-3,-1.1696826E-2,-5.082591E-3,1.7214552E-2,9.487549E-4,2.9379087E-2,1.6077625E-2,-5.192657E-3,-7.1441306E-4,9.404725E-3,-5.952488E-4,3.6315486E-2,2.203847E-2,4.4165507E-2,5.7955895E-2,5.0385236E-3,1.2748789E-2,4.3428447E-2,2.1139605E-2],"categories":[],"categories_nodes":[],"categories_segments":[],"categories_sizes":[],"default_left":[0,0,0,0,0,0,0,0,0,0,0,0,0,0,0,0,0,0,0,0,0,0,0,0,0,0,0,0,0,0,0,0,0,0,0,0,0,0,0,0,0,0,0,0,0,0,0,0,0,0,0,0,0,0,0,0,0,0,0,0,0,0,0],"id":21,"left_children":[1,3,5,7,9,11,13,15,17,19,21,23,25,27,29,31,33,35,37,39,41,43,45,47,49,51,53,55,57,59,61,-1,-1,-1,-1,-1,-1,-1,-1,-1,-1,-1,-1,-1,-1,-1,-1,-1,-1,-1,-1,-1,-1,-1,-1,-1,-1,-1,-1,-1,-1,-1,-1],"loss_changes":[2.0718269E5,2.7407422E4,3.772258E4,3.9626172E3,5.6339336E3,6.514118E3,1.45445625E4,2.5659766E2,7.5891406E2,5.363164E2,8.358926E2,8.357853E3,1.9797229E3,3.571289E3,2.0602645E4,1.8199219E1,2.6117188E1,1.1871484E2,8.791406E1,4.7621094E2,5.438611E1,2.7875348E2,1.048498E3,2.2446577E3,1.8541406E3,3.6828314E2,2.5970972E3,2.4186328E3,5.202461E2,1.6362983E3,9.100484E3,0E0,0E0,0E0,0E0,0E0,0E0,0E0,0E0,0E0,0E0,0E0,0E0,0E0,0E0,0E0,0E0,0E0,0E0,0E0,0E0,0E0,0E0,0E0,0E0,0E0,0E0,0E0,0E0,0E0,0E0,0E0,0E0],"parents":[2147483647,0,0,1,1,2,2,3,3,4,4,5,5,6,6,7,7,8,8,9,9,10,10,11,11,12,12,13,13,14,14,15,15,16,16,17,17,18,18,19,19,20,20,21,21,22,22,23,23,24,24,25,25,26,26,27,27,28,28,29,29,30,30],"right_children":[2,4,6,8,10,12,14,16,18,20,22,24,26,28,30,32,34,36,38,40,42,44,46,48,50,52,54,56,58,60,62,-1,-1,-1,-1,-1,-1,-1,-1,-1,-1,-1,-1,-1,-1,-1,-1,-1,-1,-1,-1,-1,-1,-1,-1,-1,-1,-1,-1,-1,-1,-1,-1],"split_conditions":[1.85E-1,7E-2,2.95E-1,3E-2,1.19E-1,3.425E-1,4.495E-1,2.2E-1,4.6E-2,2E0,1E0,2.35E-1,2.5E-1,3.7E-1,4.1E-1,4.4E-2,2.75E-2,4E-2,2E0,1E0,1.645E-1,1.8E-1,2E0,2.435E-1,3.015E-1,2.35E-1,4.235E-1,4.04E-1,4.1E-1,3.55E-1,6.36E-1,-4.5017466E-2,-4.1981414E-2,-3.9571177E-2,-3.663734E-2,-3.210471E-2,-2.8376855E-2,-2.4757521E-2,-1.9062871E-2,-1.0234774E-2,-1.9531751E-2,-1.05889095E-2,-1.5819758E-2,3.6651036E-3,-4.9859616E-3,-1.1696826E-2,-5.082591E-3,1.7214552E-2,9.487549E-4,2.9379087E-2,1.6077625E-2,-5.192657E-3,-7.1441306E-4,9.404725E-3,-5.952488E-4,3.6315486E-2,2.203847E-2,4.4165507E-2,5.7955895E-2,5.0385236E-3,1.2748789E-2,4.3428447E-2,2.1139605E-2],"split_indices":[7,7,7,7,7,5,5,1,7,0,0,7,7,7,7,3,5,7,0,0,5,5,0,5,5,7,5,5,7,7,5,0,0,0,0,0,0,0,0,0,0,0,0,0,0,0,0,0,0,0,0,0,0,0,0,0,0,0,0,0,0,0,0],"split_type":[0,0,0,0,0,0,0,0,0,0,0,0,0,0,0,0,0,0,0,0,0,0,0,0,0,0,0,0,0,0,0,0,0,0,0,0,0,0,0,0,0,0,0,0,0,0,0,0,0,0,0,0,0,0,0,0,0,0,0,0,0,0,0],"sum_hessian":[9.0615E4,3.6119E4,5.4496E4,1.1037E4,2.5082E4,2.9071E4,2.5425E4,3.54E3,7.497E3,1.0899E4,1.4183E4,1.1004E4,1.8067E4,6.204E3,1.9221E4,1.61E3,1.93E3,3.878E3,3.619E3,9.732E3,1.167E3,2.551E3,1.1632E4,6.566E3,4.438E3,7.397E3,1.067E4,5.045E3,1.159E3,1.1321E4,7.9E3,7.69E2,8.41E2,8.07E2,1.123E3,2.371E3,1.507E3,3.303E3,3.16E2,5.9E2,9.142E3,9.05E2,2.62E2,4.52E2,2.099E3,8.251E3,3.381E3,1E3,5.566E3,1.705E3,2.733E3,4.007E3,3.39E3,4.466E3,6.204E3,3.119E3,1.926E3,6.42E2,5.17E2,6.595E3,4.726E3,2.891E3,5.009E3],"tree_param":{"num_deleted":"0","num_feature":"8","num_nodes":"63","size_leaf_vector":"1"}},{"base_weights":[1.2330747E-5,-1.7546808E0,1.2773938E0,-2.878036E0,-1.0599737E0,8.5397065E-1,2.7807217E0,-3.7081065E0,-2.3587363E0,-1.453776E0,-6.0896325E-1,5.0367707E-1,1.5345918E0,4.3878207E0,2.0360882E0,-4.110886E0,-3.2971926E0,-2.6876678E0,-2.1314516E0,-1.708406E0,-1.1826334E0,-4.4789482E-2,-7.977917E-1,1.531339E0,1.8842019E-1,3.083373E0,6.162189E-1,3.2852373E0,4.9577045E0,1.6330456E0,3.9175198E0,-4.3501496E-2,-3.8903203E-2,-3.5746522E-2,-3.1869736E-2,-2.7326422E-2,-2.1469126E-2,-2.1354951E-2,9.674099E-2,-1.7778654E-2,-1.0981232E-2,-1.2936788E-2,-6.9342E-3,-2.8382067E-3,9.470953E-3,-1.0441984E-2,-5.5256346E-3,7.890164E-3,2.4737054E-2,-2.0483586E-3,4.909346E-3,3.6106315E-2,2.241121E-2,1.1126182E-2,3.3280859E-3,4.0705293E-2,1.971075E-2,4.637322E-2,6.503767E-2,1.269021E-2,2.1440715E-2,5.6090593E-2,2.8957445E-2],"categories":[],"categories_nodes":[],"categories_segments":[],"categories_sizes":[],"default_left":[0,0,0,0,0,0,0,0,0,0,0,0,0,0,0,0,0,0,0,0,0,0,0,0,0,0,0,0,0,0,0,0,0,0,0,0,0,0,0,0,0,0,0,0,0,0,0,0,0,0,0,0,0,0,0,0,0,0,0,0,0,0,0],"id":22,"left_children":[1,3,5,7,9,11,13,15,17,19,21,23,25,27,29,31,33,35,37,39,41,43,45,47,49,51,53,55,57,59,61,-1,-1,-1,-1,-1,-1,-1,-1,-1,-1,-1,-1,-1,-1,-1,-1,-1,-1,-1,-1,-1,-1,-1,-1,-1,-1,-1,-1,-1,-1,-1,-1],"loss_changes":[2.0311006E5,2.978961E4,3.3378617E4,6.2790625E3,4.188908E3,9.754785E3,1.3781836E4,9.1527344E2,6.653242E2,8.6741406E2,1.1716042E3,8.752289E3,1.9773152E4,2.275914E3,5.966709E3,1.3242578E2,7.371484E1,8.324414E1,2.7428516E2,2.732422E2,3.3059277E2,6.54404E2,4.9733154E2,4.4345293E3,2.4597148E3,2.290043E3,1.2276663E3,1.2778506E3,1.160125E3,1.2044004E3,2.3844688E3,0E0,0E0,0E0,0E0,0E0,0E0,0E0,0E0,0E0,0E0,0E0,0E0,0E0,0E0,0E0,0E0,0E0,0E0,0E0,0E0,0E0,0E0,0E0,0E0,0E0,0E0,0E0,0E0,0E0,0E0,0E0,0E0],"parents":[2147483647,0,0,1,1,2,2,3,3,4,4,5,5,6,6,7,7,8,8,9,9,10,10,11,11,12,12,13,13,14,14,15,15,16,16,17,17,18,18,19,19,20,20,21,21,22,22,23,23,24,24,25,25,26,26,27,27,28,28,29,29,30,30],"right_children":[2,4,6,8,10,12,14,16,18,20,22,24,26,28,30,32,34,36,38,40,42,44,46,48,50,52,54,56,58,60,62,-1,-1,-1,-1,-1,-1,-1,-1,-1,-1,-1,-1,-1,-1,-1,-1,-1,-1,-1,-1,-1,-1,-1,-1,-1,-1,-1,-1,-1,-1,-1,-1],"split_conditions":[1.95E-1,8.5E-2,3.75E-1,3.65E-2,1.45E-1,2.95E-1,5.865E-1,7.95E-2,6E-2,1.15E-1,2.29E-1,3.205E-1,4.495E-1,4.1E-1,5.12E-1,1.25E-2,3E-2,2E0,1.45E-1,2E0,2E0,1.75E-1,1.75E-1,2.35E-1,2.5E-1,4.04E-1,6.15E-1,5.06E-1,5.12E-1,4.45E-1,7.305E-1,-4.3501496E-2,-3.8903203E-2,-3.5746522E-2,-3.1869736E-2,-2.7326422E-2,-2.1469126E-2,-2.1354951E-2,9.674099E-2,-1.7778654E-2,-1.0981232E-2,-1.2936788E-2,-6.9342E-3,-2.8382067E-3,9.470953E-3,-1.0441984E-2,-5.5256346E-3,7.890164E-3,2.4737054E-2,-2.0483586E-3,4.909346E-3,3.6106315E-2,2.241121E-2,1.1126182E-2,3.3280859E-3,4.0705293E-2,1.971075E-2,4.637322E-2,6.503767E-2,1.269021E-2,2.1440715E-2,5.6090593E-2,2.8957445E-2],"split_indices":[7,7,7,7,7,7,5,4,7,7,5,5,5,7,7,7,7,0,3,0,0,7,7,7,7,5,1,5,7,7,5,0,0,0,0,0,0,0,0,0,0,0,0,0,0,0,0,0,0,0,0,0,0,0,0,0,0,0,0,0,0,0,0],"split_type":[0,0,0,0,0,0,0,0,0,0,0,0,0,0,0,0,0,0,0,0,0,0,0,0,0,0,0,0,0,0,0,0,0,0,0,0,0,0,0,0,0,0,0,0,0,0,0,0,0,0,0,0,0,0,0,0,0,0,0,0,0,0,0],"sum_hessian":[9.0615E4,3.8175E4,5.244E4,1.4586E4,2.3589E4,4.0917E4,1.1523E4,5.611E3,8.975E3,1.2592E4,1.0997E4,2.7015E4,1.3902E4,3.647E3,7.876E3,2.829E3,2.782E3,3.663E3,5.312E3,6.491E3,6.101E3,2.758E3,8.239E3,6.341E3,2.0674E4,5.174E3,8.728E3,1.245E3,2.402E3,6.488E3,1.388E3,1.348E3,1.481E3,7.82E2,2E3,3.378E3,2.85E2,5.311E3,1E0,5.826E3,6.65E2,4.971E3,1.13E3,2.223E3,5.35E2,4.108E3,4.131E3,3.548E3,2.793E3,8.989E3,1.1685E4,3.18E3,1.994E3,3.171E3,5.557E3,7.78E2,4.67E2,1.993E3,4.09E2,3.791E3,2.697E3,5.21E2,8.67E2],"tree_param":{"num_deleted":"0","num_feature":"8","num_nodes":"63","size_leaf_vector":"1"}},{"base_weights":[1.4539839E-5,-1.7371387E0,1.2646275E0,-2.856397E0,-1.0537537E0,7.301705E-1,2.4343371E0,-3.671052E0,-2.3401232E0,-1.6037724E0,-7.330014E-1,1.2037843E0,2.1300057E-1,3.84907E0,1.9652729E0,-4.0834002E0,-3.2773566E0,-2.6608043E0,-2.113629E0,-1.6777633E0,-1.0181987E0,-2.3971991E-1,-8.541477E-1,5.614223E-1,2.4096274E0,-1.3389587E-1,7.5126547E-1,3.2218182E0,5.5324016E0,1.198844E0,3.1047223E0,-4.2972144E-2,-3.854642E-2,-3.549205E-2,-3.156316E-2,-2.7053237E-2,-2.1255186E-2,-2.1892916E-2,-1.4077036E-2,-8.383569E-3,-1.7479585E-2,-8.193435E-3,-1.425127E-2,5.72926E-3,-3.6172909E-3,-1.0687014E-2,-4.1376906E-3,1.8884763E-2,2.9228532E-3,1.8610494E-2,3.4608494E-2,-4.7029913E-3,6.333689E-4,1.716133E-2,2.63928E-3,3.931809E-2,2.3531808E-2,5.3488858E-2,7.0157185E-2,7.1282303E-3,1.6213331E-2,4.2539604E-2,2.0769328E-2],"categories":[],"categories_nodes":[],"categories_segments":[],"categories_sizes":[],"default_left":[0,0,0,0,0,0,0,0,0,0,0,0,0,0,0,0,0,0,0,0,0,0,0,0,0,0,0,0,0,0,0,0,0,0,0,0,0,0,0,0,0,0,0,0,0,0,0,0,0,0,0,0,0,0,0,0,0,0,0,0,0,0,0],"id":23,"left_children":[1,3,5,7,9,11,13,15,17,19,21,23,25,27,29,31,33,35,37,39,41,43,45,47,49,51,53,55,57,59,61,-1,-1,-1,-1,-1,-1,-1,-1,-1,-1,-1,-1,-1,-1,-1,-1,-1,-1,-1,-1,-1,-1,-1,-1,-1,-1,-1,-1,-1,-1,-1,-1],"loss_changes":[1.9906981E5,2.919721E4,3.2782195E4,6.0781094E3,4.1808574E3,8.8165625E3,1.0906023E4,8.976719E2,6.3796875E2,3.7658008E2,8.9468994E2,1.4552375E4,3.2132158E3,4.304918E3,1.0784234E4,1.1730859E2,8.343164E1,8.156445E1,2.745547E2,4.5518164E2,7.829559E1,2.930971E2,1.1354551E3,4.3782207E3,3.7592656E3,6.9437994E2,3.170684E3,1.8316699E3,2.64625E2,1.5156797E3,5.8580586E3,0E0,0E0,0E0,0E0,0E0,0E0,0E0,0E0,0E0,0E0,0E0,0E0,0E0,0E0,0E0,0E0,0E0,0E0,0E0,0E0,0E0,0E0,0E0,0E0,0E0,0E0,0E0,0E0,0E0,0E0,0E0,0E0],"parents":[2147483647,0,0,1,1,2,2,3,3,4,4,5,5,6,6,7,7,8,8,9,9,10,10,11,11,12,12,13,13,14,14,15,15,16,16,17,17,18,18,19,19,20,20,21,21,22,22,23,23,24,24,25,25,26,26,27,27,28,28,29,29,30,30],"right_children":[2,4,6,8,10,12,14,16,18,20,22,24,26,28,30,32,34,36,38,40,42,44,46,48,50,52,54,56,58,60,62,-1,-1,-1,-1,-1,-1,-1,-1,-1,-1,-1,-1,-1,-1,-1,-1,-1,-1,-1,-1,-1,-1,-1,-1,-1,-1,-1,-1,-1,-1,-1,-1],"split_conditions":[1.95E-1,8.35E-2,3.4E-1,3.65E-2,1.25E-1,4.01E-1,5.06E-1,2.25E-2,6E-2,2E0,1E0,2.6E-1,2.95E-1,4.1E-1,4.45E-1,1.8E-2,9.4E-2,2E0,2E0,1E0,1.69E-1,1.8E-1,2E0,2.765E-1,2.95E-1,2.55E-1,4.725E-1,4.315E-1,5.12E-1,3.9E-1,6.94E-1,-4.2972144E-2,-3.854642E-2,-3.549205E-2,-3.156316E-2,-2.7053237E-2,-2.1255186E-2,-2.1892916E-2,-1.4077036E-2,-8.383569E-3,-1.7479585E-2,-8.193435E-3,-1.425127E-2,5.72926E-3,-3.6172909E-3,-1.0687014E-2,-4.1376906E-3,1.8884763E-2,2.9228532E-3,1.8610494E-2,3.4608494E-2,-4.7029913E-3,6.333689E-4,1.716133E-2,2.63928E-3,3.931809E-2,2.3531808E-2,5.3488858E-2,7.0157185E-2,7.1282303E-3,1.6213331E-2,4.2539604E-2,2.0769328E-2],"split_indices":[7,7,7,7,7,5,5,7,7,0,0,7,7,7,7,5,4,0,0,0,5,5,0,5,7,7,5,5,7,7,5,0,0,0,0,0,0,0,0,0,0,0,0,0,0,0,0,0,0,0,0,0,0,0,0,0,0,0,0,0,0,0,0],"split_type":[0,0,0,0,0,0,0,0,0,0,0,0,0,0,0,0,0,0,0,0,0,0,0,0,0,0,0,0,0,0,0,0,0,0,0,0,0,0,0,0,0,0,0,0,0,0,0,0,0,0,0,0,0,0,0,0,0,0,0,0,0,0,0],"sum_hessian":[9.0615E4,3.8175E4,5.244E4,1.4471E4,2.3704E4,3.5995E4,1.6445E4,5.611E3,8.86E3,8.73E3,1.4974E4,1.8788E4,1.7207E4,4.093E3,1.2352E4,2.736E3,2.875E3,3.663E3,5.197E3,7.749E3,9.81E2,2.953E3,1.2021E4,1.2259E4,6.529E3,1.0464E4,6.743E3,2.984E3,1.109E3,7.386E3,4.966E3,1.405E3,1.331E3,8.77E2,1.998E3,3.378E3,2.85E2,4.692E3,5.05E2,5.99E2,7.15E3,6.61E2,3.2E2,3.85E2,2.568E3,8.082E3,3.939E3,2.066E3,1.0193E4,4.292E3,2.237E3,3.867E3,6.597E3,2.262E3,4.481E3,1.64E3,1.344E3,9.91E2,1.18E2,3.436E3,3.95E3,2.343E3,2.623E3],"tree_param":{"num_deleted":"0","num_feature":"8","num_nodes":"63","size_leaf_vector":"1"}},{"base_weights":[1.5147462E-5,-1.8024228E0,1.1946508E0,-3.0767195E0,-1.2415851E0,4.3980452E-1,2.0576923E0,-3.923465E0,-2.6764257E0,-1.766085E0,-8.3843434E-1,1.0334228E0,7.8214474E-2,3.3516624E0,1.6398823E0,-4.2178845E0,-3.675804E0,-2.9764261E0,-2.354222E0,-1.8409128E0,-1.141029E0,-3.3114454E-1,-9.4964945E-1,3.323348E-1,2.0703707E0,-3.08087E-1,3.4602255E-1,2.995217E0,4.8993106E0,8.001407E-1,2.8430107E0,-4.3711394E-2,-4.0727247E-2,-3.8403425E-2,-3.554253E-2,-3.1153731E-2,-2.7558966E-2,-2.402047E-2,-1.8483292E-2,-9.837174E-3,-1.8961202E-2,-1.0231025E-2,-1.5429314E-2,3.6890032E-3,-4.8199655E-3,-1.1369828E-2,-4.922796E-3,1.6893914E-2,8.826328E-4,2.8691107E-2,1.5712041E-2,-5.1126597E-3,-6.7848276E-4,9.154108E-3,-6.393774E-4,3.9869674E-2,2.53695E-2,4.2981904E-2,5.63603E-2,4.85989E-3,1.2383348E-2,4.2754877E-2,2.078267E-2],"categories":[],"categories_nodes":[],"categories_segments":[],"categories_sizes":[],"default_left":[0,0,0,0,0,0,0,0,0,0,0,0,0,0,0,0,0,0,0,0,0,0,0,0,0,0,0,0,0,0,0,0,0,0,0,0,0,0,0,0,0,0,0,0,0,0,0,0,0,0,0,0,0,0,0,0,0,0,0,0,0,0,0],"id":24,"left_children":[1,3,5,7,9,11,13,15,17,19,21,23,25,27,29,31,33,35,37,39,41,43,45,47,49,51,53,55,57,59,61,-1,-1,-1,-1,-1,-1,-1,-1,-1,-1,-1,-1,-1,-1,-1,-1,-1,-1,-1,-1,-1,-1,-1,-1,-1,-1,-1,-1,-1,-1,-1,-1],"loss_changes":[1.9512162E5,2.5810195E4,3.5501906E4,3.7307969E3,5.3023867E3,6.240121E3,1.3740648E4,2.4269531E2,7.177539E2,5.0770703E2,7.999219E2,7.9998564E3,1.8693254E3,3.4083281E3,1.9418035E4,1.803711E1,2.496875E1,1.1027344E2,8.314453E1,4.5873438E2,5.3778687E1,2.6967706E2,9.961631E2,2.1749653E3,1.7653398E3,3.6107257E2,2.4909539E3,2.2832227E3,4.8948828E2,1.5579785E3,8.646484E3,0E0,0E0,0E0,0E0,0E0,0E0,0E0,0E0,0E0,0E0,0E0,0E0,0E0,0E0,0E0,0E0,0E0,0E0,0E0,0E0,0E0,0E0,0E0,0E0,0E0,0E0,0E0,0E0,0E0,0E0,0E0,0E0],"parents":[2147483647,0,0,1,1,2,2,3,3,4,4,5,5,6,6,7,7,8,8,9,9,10,10,11,11,12,12,13,13,14,14,15,15,16,16,17,17,18,18,19,19,20,20,21,21,22,22,23,23,24,24,25,25,26,26,27,27,28,28,29,29,30,30],"right_children":[2,4,6,8,10,12,14,16,18,20,22,24,26,28,30,32,34,36,38,40,42,44,46,48,50,52,54,56,58,60,62,-1,-1,-1,-1,-1,-1,-1,-1,-1,-1,-1,-1,-1,-1,-1,-1,-1,-1,-1,-1,-1,-1,-1,-1,-1,-1,-1,-1,-1,-1,-1,-1],"split_conditions":[1.85E-1,7E-2,2.95E-1,3E-2,1.19E-1,3.425E-1,4.495E-1,2.2E-1,4.6E-2,2E0,1E0,2.35E-1,2.5E-1,3.7E-1,4.1E-1,4.4E-2,2.75E-2,4E-2,2E0,1E0,1.645E-1,1.8E-1,2E0,2.435E-1,3.015E-1,2.35E-1,4.235E-1,3.62E-1,4.1E-1,3.55E-1,6.31E-1,-4.3711394E-2,-4.0727247E-2,-3.8403425E-2,-3.554253E-2,-3.1153731E-2,-2.7558966E-2,-2.402047E-2,-1.8483292E-2,-9.837174E-3,-1.8961202E-2,-1.0231025E-2,-1.5429314E-2,3.6890032E-3,-4.8199655E-3,-1.1369828E-2,-4.922796E-3,1.6893914E-2,8.826328E-4,2.8691107E-2,1.5712041E-2,-5.1126597E-3,-6.7848276E-4,9.154108E-3,-6.393774E-4,3.9869674E-2,2.53695E-2,4.2981904E-2,5.63603E-2,4.85989E-3,1.2383348E-2,4.2754877E-2,2.078267E-2],"split_indices":[7,7,7,7,7,5,5,1,7,0,0,7,7,7,7,3,5,7,0,0,5,5,0,5,5,7,5,5,7,7,5,0,0,0,0,0,0,0,0,0,0,0,0,0,0,0,0,0,0,0,0,0,0,0,0,0,0,0,0,0,0,0,0],"split_type":[0,0,0,0,0,0,0,0,0,0,0,0,0,0,0,0,0,0,0,0,0,0,0,0,0,0,0,0,0,0,0,0,0,0,0,0,0,0,0,0,0,0,0,0,0,0,0,0,0,0,0,0,0,0,0,0,0,0,0,0,0,0,0],"sum_hessian":[9.0615E4,3.6119E4,5.4496E4,1.1037E4,2.5082E4,2.9071E4,2.5425E4,3.54E3,7.497E3,1.0899E4,1.4183E4,1.1004E4,1.8067E4,6.204E3,1.9221E4,1.61E3,1.93E3,3.878E3,3.619E3,9.732E3,1.167E3,2.551E3,1.1632E4,6.566E3,4.438E3,7.397E3,1.067E4,5.045E3,1.159E3,1.1321E4,7.9E3,7.69E2,8.41E2,8.07E2,1.123E3,2.371E3,1.507E3,3.303E3,3.16E2,5.9E2,9.142E3,9.05E2,2.62E2,4.52E2,2.099E3,8.251E3,3.381E3,1E3,5.566E3,1.705E3,2.733E3,4.007E3,3.39E3,4.466E3,6.204E3,1.592E3,3.453E3,6.42E2,5.17E2,6.595E3,4.726E3,2.748E3,5.152E3],"tree_param":{"num_deleted":"0","num_feature":"8","num_nodes":"63","size_leaf_vector":"1"}},{"base_weights":[1.4637505E-5,-1.7029009E0,1.239703E0,-2.793251E0,-1.0286049E0,6.3437E-1,2.2335458E0,-3.5981436E0,-2.2897027E0,-1.4119363E0,-5.895869E-1,1.2653279E0,2.351498E-1,3.4161143E0,1.7551732E0,-3.9895744E0,-3.1988091E0,-2.6083953E0,-2.069492E0,-1.6574296E0,-1.1505212E0,-3.2223154E-2,-7.7613753E-1,6.774127E-1,2.5690541E0,-1.287284E-1,6.6456956E-1,2.898733E0,5.2948833E0,1.0285004E0,3.0699418E0,-4.2222112E-2,-3.7751235E-2,-3.4679707E-2,-3.0918865E-2,-2.6521966E-2,-2.0817753E-2,-2.0735119E-2,9.641593E-2,-1.7247498E-2,-1.0659388E-2,-1.258586E-2,-6.744393E-3,-2.6642682E-3,9.396074E-3,-1.0169988E-2,-5.3642914E-3,1.7981386E-2,3.5131308E-3,2.1903355E-2,3.3768106E-2,-4.027943E-3,8.3295786E-4,1.4575958E-2,1.4820349E-3,3.9014515E-2,2.1241639E-2,5.112037E-2,6.995259E-2,5.701907E-3,1.6122336E-2,